{
  "b": [
    -0.3735677897930145,
    0.36879462003707886,
    0.10758688300848007,
    -0.2341129034757614,
    0.012126446701586246,
    1.2620441913604736,
    -0.0864819884300232,
    0.6135225892066956,
    -1.4329290390014648,
    -0.23698210716247559
  ],
  "W": [
    [
      0.0,
      0.0,
      0.0,
      0.0,
      0.0,
      0.0,
      0.0,
      0.0,
      0.0,
      0.0
    ],
    [
      0.0,
      0.0,
      0.0,
      0.0,
      0.0,
      0.0,
      0.0,
      0.0,
      0.0,
      0.0
    ],
    [
      0.0,
      0.0,
      0.0,
      0.0,
      0.0,
      0.0,
      0.0,
      0.0,
      0.0,
      0.0
    ],
    [
      0.0,
      0.0,
      0.0,
      0.0,
      0.0,
      0.0,
      0.0,
      0.0,
      0.0,
      0.0
    ],
    [
      0.0,
      0.0,
      0.0,
      0.0,
      0.0,
      0.0,
      0.0,
      0.0,
      0.0,
      0.0
    ],
    [
      0.0,
      0.0,
      0.0,
      0.0,
      0.0,
      0.0,
      0.0,
      0.0,
      0.0,
      0.0
    ],
    [
      0.0,
      0.0,
      0.0,
      0.0,
      0.0,
      0.0,
      0.0,
      0.0,
      0.0,
      0.0
    ],
    [
      0.0,
      0.0,
      0.0,
      0.0,
      0.0,
      0.0,
      0.0,
      0.0,
      0.0,
      0.0
    ],
    [
      0.0,
      0.0,
      0.0,
      0.0,
      0.0,
      0.0,
      0.0,
      0.0,
      0.0,
      0.0
    ],
    [
      0.0,
      0.0,
      0.0,
      0.0,
      0.0,
      0.0,
      0.0,
      0.0,
      0.0,
      0.0
    ],
    [
      0.0,
      0.0,
      0.0,
      0.0,
      0.0,
      0.0,
      0.0,
      0.0,
      0.0,
      0.0
    ],
    [
      0.0,
      0.0,
      0.0,
      0.0,
      0.0,
      0.0,
      0.0,
      0.0,
      0.0,
      0.0
    ],
    [
      -5.38727761068003e-07,
      -1.61298976308899e-06,
      -0.00011581106809899211,
      -1.3754412975686137e-05,
      -0.0014250925742089748,
      -2.2250282199820504e-05,
      0.0017567570321261883,
      -1.5807715953997103e-06,
      -2.6283312763553113e-05,
      -0.00014983300934545696
    ],
    [
      -5.206965852266876e-06,
      -4.196318968752166e-06,
      8.805596735328436e-06,
      -3.670523437904194e-05,
      -0.003272765316069126,
      -4.897431790595874e-05,
      0.0037639227230101824,
      -6.9653870014008135e-06,
      -6.347808812279254e-05,
      -0.0003344364231452346
    ],
    [
      -4.481656560528791e-06,
      -7.393808800770785e-07,
      0.0002919919788837433,
      -7.330974767683074e-06,
      -0.00016948497795965523,
      -2.825084948199219e-07,
      -9.210668213199824e-05,
      -3.899328930856427e-06,
      -6.595278591703391e-06,
      -7.070569154166151e-06
    ],
    [
      -1.8673569002203294e-07,
      -3.0807534301402484e-08,
      1.2166332453489304e-05,
      -3.0545726303898846e-07,
      -7.061874384817202e-06,
      -1.1771186692044466e-08,
      -3.837778422166593e-06,
      -1.6247201983787818e-07,
      -2.748032841282111e-07,
      -2.946070480902563e-07
    ],
    [
      0.0,
      0.0,
      0.0,
      0.0,
      0.0,
      0.0,
      0.0,
      0.0,
      0.0,
      0.0
    ],
    [
      0.0,
      0.0,
      0.0,
      0.0,
      0.0,
      0.0,
      0.0,
      0.0,
      0.0,
      0.0
    ],
    [
      0.0,
      0.0,
      0.0,
      0.0,
      0.0,
      0.0,
      0.0,
      0.0,
      0.0,
      0.0
    ],
    [
      0.0,
      0.0,
      0.0,
      0.0,
      0.0,
      0.0,
      0.0,
      0.0,
      0.0,
      0.0
    ],
    [
      0.0,
      0.0,
      0.0,
      0.0,
      0.0,
      0.0,
      0.0,
      0.0,
      0.0,
      0.0
    ],
    [
      0.0,
      0.0,
      0.0,
      0.0,
      0.0,
      0.0,
      0.0,
      0.0,
      0.0,
      0.0
    ],
    [
      0.0,
      0.0,
      0.0,
      0.0,
      0.0,
      0.0,
      0.0,
      0.0,
      0.0,
      0.0
    ],
    [
      0.0,
      0.0,
      0.0,
      0.0,
      0.0,
      0.0,
      0.0,
      0.0,
      0.0,
      0.0
    ],
    [
      0.0,
      0.0,
      0.0,
      0.0,
      0.0,
      0.0,
      0.0,
      0.0,
      0.0,
      0.0
    ],
    [
      0.0,
      0.0,
      0.0,
      0.0,
      0.0,
      0.0,
      0.0,
      0.0,
      0.0,
      0.0
    ],
    [
      0.0,
      0.0,
      0.0,
      0.0,
      0.0,
      0.0,
      0.0,
      0.0,
      0.0,
      0.0
    ],
    [
      0.0,
      0.0,
      0.0,
      0.0,
      0.0,
      0.0,
      0.0,
      0.0,
      0.0,
      0.0
    ],
    [
      0.0,
      0.0,
      0.0,
      0.0,
      0.0,
      0.0,
      0.0,
      0.0,
      0.0,
      0.0
    ],
    [
      0.0,
      0.0,
      0.0,
      0.0,
      0.0,
      0.0,
      0.0,
      0.0,
      0.0,
      0.0
    ],
    [
      0.0,
      0.0,
      0.0,
      0.0,
      0.0,
      0.0,
      0.0,
      0.0,
      0.0,
      0.0
    ],
    [
      0.0,
      0.0,
      0.0,
      0.0,
      0.0,
      0.0,
      0.0,
      0.0,
      0.0,
      0.0
    ],
    [
      -3.954602423306142e-09,
      -9.998566419255894e-09,
      -1.6807701967991306e-06,
      -4.566014233375881e-09,
      -7.319103588088183e-06,
      -6.852670964008212e-08,
      9.695427252154332e-06,
      -2.055175762905037e-08,
      -1.7931179741026426e-07,
      -4.0862661876417405e-07
    ],
    [
      -1.4895199740294629e-08,
      -2.9378911747812708e-08,
      -5.1550427997426596e-06,
      -1.4025444805554343e-08,
      -4.5068412873661146e-05,
      -2.0213281004544115e-07,
      5.238894300418906e-05,
      -9.314264559634466e-08,
      -5.331502848093805e-07,
      -1.2787232890332234e-06
    ],
    [
      -1.2608926454049652e-06,
      -1.4364181311066204e-07,
      -0.00013077224139124155,
      -2.18614331970457e-06,
      -0.004878492094576359,
      -4.888832336291671e-06,
      0.005064803175628185,
      -1.5846888345549814e-05,
      -1.9752919797610957e-06,
      -2.9237013222882524e-05
    ],
    [
      -1.0075098543893546e-05,
      -3.388375262147747e-05,
      -0.00030066652107052505,
      -8.25840288598556e-06,
      -0.011402043513953686,
      -9.014335773827042e-06,
      0.01194106973707676,
      -6.888079224154353e-05,
      -2.6224164685118012e-05,
      -8.202379831345752e-05
    ],
    [
      -7.548076246166602e-05,
      -0.0013826001668348908,
      -0.00038900761865079403,
      -9.240790677722543e-05,
      -0.008785168640315533,
      -5.047034937888384e-05,
      0.011834603734314442,
      -0.00033902731956914067,
      -0.00039918473339639604,
      -0.00032125672441907227
    ],
    [
      -0.00011783837544498965,
      -0.0011295648291707039,
      -0.0013563736574724317,
      -8.874246123014018e-05,
      -0.006305600516498089,
      -4.287399133318104e-05,
      0.009920250624418259,
      -0.00025788971106521785,
      -0.00040806172182783484,
      -0.00021330472372937948
    ],
    [
      -0.000545307295396924,
      -0.0008171067456714809,
      -0.003220261074602604,
      -0.00011901136167580262,
      -0.014238868840038776,
      -0.0001673880178714171,
      0.020893290638923645,
      -0.0004707031766884029,
      -0.0005699140019714832,
      -0.0007447348907589912
    ],
    [
      0.0013229202013462782,
      -0.0003199147176928818,
      -0.004868085030466318,
      -0.00013088964624330401,
      -0.019927630200982094,
      -0.00020950098405592144,
      0.027996212244033813,
      -0.0011164818424731493,
      -0.0006838227272965014,
      -0.002062820363789797
    ],
    [
      0.0031386748887598515,
      -0.00022302140132524073,
      -0.0071645453572273254,
      -0.0002982348087243736,
      -0.032901663333177567,
      -0.001326250028796494,
      0.044526442885398865,
      -0.001853853464126587,
      -0.0007409119862131774,
      -0.0031566289253532887
    ],
    [
      0.0012304945848882198,
      -0.00012432590301614255,
      -0.004468057304620743,
      -0.00018221909704152495,
      -0.019677989184856415,
      -0.001206195680424571,
      0.02732773683965206,
      -0.0005443967529572546,
      -0.0006505048368126154,
      -0.001704549416899681
    ],
    [
      -0.0004988533328287303,
      0.002598516410216689,
      0.00011255927529418841,
      -0.0005062822601757944,
      -0.009323922917246819,
      -0.000506233365740627,
      0.00997009128332138,
      -0.00017799604393076152,
      -0.0008346940740011632,
      -0.0008331852732226253
    ],
    [
      0.0010732350638136268,
      0.003893208922818303,
      0.006253866944462061,
      -0.0007413418497890234,
      -0.01859854906797409,
      -0.0007499418570660055,
      0.011862536892294884,
      -0.00042704236693680286,
      -0.0009452015510760248,
      -0.0016207712469622493
    ],
    [
      0.0035306040663272142,
      -0.0015365651343017817,
      0.01641288958489895,
      -0.0004937241319566965,
      -0.01871444471180439,
      -0.0008284977520816028,
      0.0075078182853758335,
      -0.0009486758499406278,
      -0.0015115962596610188,
      -0.003417805302888155
    ],
    [
      0.0014042248949408531,
      -0.0008852626197040081,
      0.0025990083813667297,
      -0.00016379245789721608,
      -0.008323732763528824,
      -0.000520779809448868,
      0.009716512635350227,
      -0.00044671015348285437,
      -0.0011577330296859145,
      -0.002221733098849654
    ],
    [
      -0.00039525082684122026,
      -0.00011874561459990218,
      -0.0044661457650363445,
      -6.305293209152296e-05,
      -0.004278562031686306,
      -0.0006730391178280115,
      0.011658122763037682,
      -0.00015648105181753635,
      -0.000676669820677489,
      -0.0008301701745949686
    ],
    [
      -0.0002244313363917172,
      -2.5964694941649213e-05,
      -0.0030822905246168375,
      -2.5847071810858324e-05,
      -0.0032090111635625362,
      -0.0005186093039810658,
      0.007835183292627335,
      -0.00010619348904583603,
      -0.00025661473046056926,
      -0.00038621886051259935
    ],
    [
      -0.00012833374785259366,
      -2.7077443519374356e-05,
      -0.0015221275389194489,
      -2.903494350903202e-05,
      -0.0029751479160040617,
      -0.0002582776651252061,
      0.005555362906306982,
      -4.38971801486332e-05,
      -0.00021948121138848364,
      -0.0003519869642332196
    ],
    [
      -0.0001474104356020689,
      -2.533271981519647e-05,
      -0.0008080140687525272,
      -2.459716961311642e-05,
      -0.0047791143879294395,
      -7.969827856868505e-05,
      0.006392949726432562,
      -1.1095962690887973e-05,
      -0.00020718852465506643,
      -0.00031049843528307974
    ],
    [
      -5.4274929425446317e-05,
      -4.701730631495593e-06,
      -8.56869519338943e-05,
      -4.659199021261884e-06,
      -0.005500202067196369,
      -9.494655387243256e-06,
      0.005870416760444641,
      -5.419644367066212e-06,
      -5.20782450621482e-05,
      -0.00015389893087558448
    ],
    [
      -4.7878543796286976e-08,
      -3.5890444394226506e-08,
      -2.754240995272994e-05,
      -2.1302628994135375e-08,
      -0.001082755159586668,
      -1.2540136822281056e-06,
      0.0011464778799563646,
      -4.4374783101375215e-06,
      -7.0217333814071026e-06,
      -2.3361850253422745e-05
    ],
    [
      0.0,
      0.0,
      0.0,
      0.0,
      0.0,
      0.0,
      0.0,
      0.0,
      0.0,
      0.0
    ],
    [
      0.0,
      0.0,
      0.0,
      0.0,
      0.0,
      0.0,
      0.0,
      0.0,
      0.0,
      0.0
    ],
    [
      0.0,
      0.0,
      0.0,
      0.0,
      0.0,
      0.0,
      0.0,
      0.0,
      0.0,
      0.0
    ],
    [
      0.0,
      0.0,
      0.0,
      0.0,
      0.0,
      0.0,
      0.0,
      0.0,
      0.0,
      0.0
    ],
    [
      0.0,
      0.0,
      0.0,
      0.0,
      0.0,
      0.0,
      0.0,
      0.0,
      0.0,
      0.0
    ],
    [
      0.0,
      0.0,
      0.0,
      0.0,
      0.0,
      0.0,
      0.0,
      0.0,
      0.0,
      0.0
    ],
    [
      -1.0472717804077547e-07,
      -2.309520352739014e-09,
      -5.651784817928274e-07,
      -1.7327028700719893e-08,
      -1.4885099517414346e-06,
      -5.785880716757674e-07,
      4.145529146626359e-06,
      -8.79301909062491e-11,
      -4.908861228614114e-07,
      -8.976343224276206e-07
    ],
    [
      0.00031437104917131364,
      -8.526116701546016e-09,
      -6.549236786668189e-06,
      -4.303362288737844e-07,
      -0.0002377700002398342,
      -2.177153692173306e-05,
      3.5104811104247347e-05,
      -3.7349891499616206e-05,
      -5.5065897868189495e-06,
      -4.0089689719025046e-05
    ],
    [
      8.995951793622226e-05,
      -1.3726677934755571e-05,
      -0.0002589031937532127,
      -1.2118801350879949e-05,
      -0.00037939572939649224,
      -3.057820867979899e-05,
      0.0009462544694542885,
      -4.898008774034679e-05,
      -0.00011247779184486717,
      -0.00018003277364186943
    ],
    [
      -0.00015971279935911298,
      -5.566956588154426e-06,
      -5.3056239266879857e-05,
      -2.330941060790792e-05,
      -0.00016130052972584963,
      -1.64315351867117e-05,
      0.0004881597706116736,
      -8.297964996017981e-06,
      -2.5445722712902352e-05,
      -3.503854895825498e-05
    ],
    [
      -0.0013750586658716202,
      -0.0004628263122867793,
      -0.0006157098687253892,
      -0.0005740195047110319,
      -0.006355913355946541,
      -0.0005266316002234817,
      0.011352731846272945,
      -0.0004671923816204071,
      -0.0004915858153253794,
      -0.0004837965243496001
    ],
    [
      -0.0020610152278095484,
      -0.0013270865892991424,
      -0.0015061884187161922,
      -0.0012095392448827624,
      -0.02060643769800663,
      -0.0010943880770355463,
      0.030932165682315826,
      -0.0011100942501798272,
      -0.0009422056027688086,
      -0.0010752060916274786
    ],
    [
      -0.0042173974215984344,
      -0.005969672463834286,
      -0.000803763628937304,
      -0.002746577374637127,
      -0.025263408198952675,
      -0.0012431867653504014,
      0.044498685747385025,
      -0.0015492154052481055,
      -0.0015024382155388594,
      -0.0012030397774651647
    ],
    [
      -0.008919897489249706,
      -0.009797153063118458,
      0.008948241360485554,
      -0.005015022587031126,
      -0.03241216763854027,
      -0.0031160993967205286,
      0.05926503241062164,
      -0.0023578961845487356,
      -0.004573033656924963,
      -0.0020220016594976187
    ],
    [
      -0.01045424584299326,
      -0.00959366001188755,
      0.011666432023048401,
      -0.004195453133434057,
      -0.06667796522378922,
      -0.006052540615200996,
      0.10645083338022232,
      -0.005707341246306896,
      -0.009066815488040447,
      -0.006369147915393114
    ],
    [
      -0.012069357559084892,
      -0.009815922006964684,
      0.027771219611167908,
      -0.0003328111197333783,
      -0.08193588256835938,
      -0.012051904574036598,
      0.11915288120508194,
      -0.008408201858401299,
      -0.012395644560456276,
      -0.009914410300552845
    ],
    [
      -0.015209752134978771,
      0.0013500472996383905,
      0.021721133962273598,
      0.0019700347911566496,
      -0.10430967807769775,
      -0.01866931840777397,
      0.14755089581012726,
      -0.007189734373241663,
      -0.01461039949208498,
      -0.012603012844920158
    ],
    [
      -0.024804597720503807,
      0.026023710146546364,
      0.01355537585914135,
      -0.0028046369552612305,
      -0.09386695176362991,
      -0.027195796370506287,
      0.15183186531066895,
      -0.007158135063946247,
      -0.020085733383893967,
      -0.015494990162551403
    ],
    [
      -0.03623288869857788,
      0.02993234433233738,
      0.034927546977996826,
      -0.0007794086122885346,
      -0.07801578938961029,
      -0.03184107691049576,
      0.13016119599342346,
      -0.009563005529344082,
      -0.022657373920083046,
      -0.015931526198983192
    ],
    [
      -0.03811027482151985,
      0.050915129482746124,
      0.04190986976027489,
      -0.00554787740111351,
      -0.08125200867652893,
      -0.022428497672080994,
      0.10293523222208023,
      -0.009640131145715714,
      -0.023764757439494133,
      -0.015016715973615646
    ],
    [
      -0.0316130556166172,
      0.029102031141519547,
      0.03366141393780708,
      -0.004178209230303764,
      -0.07444137334823608,
      -0.0038805685471743345,
      0.09715542197227478,
      -0.006110967602580786,
      -0.023532753810286522,
      -0.016161862760782242
    ],
    [
      -0.026658840477466583,
      0.001605198485776782,
      -0.005112338811159134,
      -0.0042003365233540535,
      -0.046477414667606354,
      0.0027745177503675222,
      0.1206970140337944,
      -0.005580115597695112,
      -0.020791076123714447,
      -0.016256704926490784
    ],
    [
      -0.019993970170617104,
      -0.004655839875340462,
      -0.02392144314944744,
      -0.0071742539294064045,
      -0.03241044282913208,
      0.007280724588781595,
      0.10697954893112183,
      -0.0032661291770637035,
      -0.01234697736799717,
      -0.010491137392818928
    ],
    [
      -0.015322406776249409,
      0.0003599895571824163,
      -0.0362536758184433,
      -0.005363889969885349,
      -0.015934664756059647,
      0.002270743018016219,
      0.08798430114984512,
      -0.0015004811575636268,
      -0.010578516870737076,
      -0.00566141726449132
    ],
    [
      -0.011289022862911224,
      -0.004082442726939917,
      -0.0192337054759264,
      -0.0032825663220137358,
      -0.009916449896991253,
      -0.0039925104938447475,
      0.06070311740040779,
      -0.0008843623218126595,
      -0.005221949424594641,
      -0.0028000969905406237
    ],
    [
      -0.006757528521120548,
      -0.0031228461302816868,
      -0.016025390475988388,
      -0.0030611047986894846,
      -0.006668316200375557,
      -0.003168154275044799,
      0.045839596539735794,
      -0.0007489093113690615,
      -0.004261975176632404,
      -0.0020254203118383884
    ],
    [
      -0.003157044528052211,
      -0.0014363824157044291,
      -0.01404955517500639,
      -0.002184618730098009,
      -0.010064021684229374,
      -0.0012469528010115027,
      0.036508508026599884,
      -0.0005394608597271144,
      -0.002822346054017544,
      -0.0010081370128318667
    ],
    [
      -0.0016150791198015213,
      -0.0010024274233728647,
      -0.005998354870826006,
      -0.0007111501763574779,
      -0.005863809492439032,
      -0.002941802376881242,
      0.019930846989154816,
      -0.00010183447011513636,
      -0.0014425457920879126,
      -0.00025384846958331764
    ],
    [
      -0.0006511648534797132,
      -0.0005593984969891608,
      0.0029928681906312704,
      -0.00015641255595255643,
      -0.00414493540301919,
      -0.002061006147414446,
      0.0057658362202346325,
      -8.228411752497777e-05,
      -0.0009670777944847941,
      -0.00013642768317367882
    ],
    [
      -5.8201971114613116e-05,
      -0.0001414412836311385,
      0.0035353736020624638,
      -1.0238904906145763e-05,
      -0.0022823303006589413,
      -0.00031590330763719976,
      -0.0003149294061586261,
      -4.7340781748062e-06,
      -0.0003612465225160122,
      -4.634857032215223e-05
    ],
    [
      0.0,
      0.0,
      0.0,
      0.0,
      0.0,
      0.0,
      0.0,
      0.0,
      0.0,
      0.0
    ],
    [
      0.0,
      0.0,
      0.0,
      0.0,
      0.0,
      0.0,
      0.0,
      0.0,
      0.0,
      0.0
    ],
    [
      0.0,
      0.0,
      0.0,
      0.0,
      0.0,
      0.0,
      0.0,
      0.0,
      0.0,
      0.0
    ],
    [
      0.0,
      0.0,
      0.0,
      0.0,
      0.0,
      0.0,
      0.0,
      0.0,
      0.0,
      0.0
    ],
    [
      -4.7382815182572813e-07,
      7.894330337876454e-05,
      -1.3684362784260884e-05,
      -5.222199433774222e-06,
      -3.828395620075753e-06,
      -2.3699619760009227e-06,
      -2.8556600227602758e-05,
      -1.4293835874923388e-06,
      -2.052398667728994e-05,
      -2.853943669833825e-06
    ],
    [
      0.0007137260399758816,
      1.849657201091759e-05,
      -7.859775359975174e-05,
      -1.071778478944907e-05,
      -0.0007767940987832844,
      -0.00019895340665243566,
      0.0006104325875639915,
      -0.00011553475633263588,
      -3.378815745236352e-05,
      -0.00012826875899918377
    ],
    [
      -0.0005868462612852454,
      -3.546493098838255e-05,
      -0.0009805049048736691,
      -0.00017336045857518911,
      -0.0006034527905285358,
      0.0007718071574345231,
      0.0022174206096678972,
      -0.0003048391081392765,
      -0.0001680373534327373,
      -0.0001367214135825634
    ],
    [
      -0.01093585416674614,
      -0.00032807906973175704,
      -8.525723387720063e-05,
      0.017262456938624382,
      -0.0008469451568089426,
      -0.0065885572694242,
      0.0030877867247909307,
      -0.0004037618055008352,
      -0.0009405844612047076,
      -0.00022120737412478775
    ],
    [
      -0.014048324897885323,
      -0.0011583295417949557,
      -0.00045199826126918197,
      0.013903387822210789,
      -0.010954605415463448,
      -0.005566423758864403,
      0.022593967616558075,
      -0.0010671487543731928,
      -0.002300485735759139,
      -0.0009500375017523766
    ],
    [
      -0.018667275086045265,
      -0.004804012831300497,
      0.00864185206592083,
      0.020297564566135406,
      -0.025207800790667534,
      -0.012387862429022789,
      0.044367264956235886,
      -0.0041412971913814545,
      -0.006076662335544825,
      -0.0020217637065798044
    ],
    [
      -0.01370223704725504,
      -0.015460940077900887,
      0.033501580357551575,
      0.023027637973427773,
      -0.054284192621707916,
      -0.0155051713809371,
      0.06501942873001099,
      -0.008349554613232613,
      -0.010477172210812569,
      -0.0037693558260798454
    ],
    [
      -0.02736002579331398,
      -0.025614162907004356,
      0.10716371238231659,
      0.019283872097730637,
      -0.08248341083526611,
      -0.026638956740498543,
      0.075051449239254,
      -0.013521378859877586,
      -0.017476415261626244,
      -0.00840452965348959
    ],
    [
      -0.028733693063259125,
      -0.042943935841321945,
      0.13053719699382782,
      0.041506003588438034,
      -0.11329282075166702,
      -0.025853058323264122,
      0.11078877002000809,
      -0.02448594756424427,
      -0.029874632135033607,
      -0.01764794997870922
    ],
    [
      -0.019360845908522606,
      -0.06517453491687775,
      0.15701133012771606,
      0.09893536567687988,
      -0.14115704596042633,
      -0.04143944010138512,
      0.1171269565820694,
      -0.035261765122413635,
      -0.04363873228430748,
      -0.02704116702079773
    ],
    [
      -0.030401993542909622,
      -0.043946895748376846,
      0.17421534657478333,
      0.13662119209766388,
      -0.1928035169839859,
      -0.035249002277851105,
      0.11272000521421432,
      -0.032995689660310745,
      -0.052604611963033676,
      -0.03555486351251602
    ],
    [
      -0.021251732483506203,
      -0.017337482422590256,
      0.18905816972255707,
      0.13257309794425964,
      -0.22149132192134857,
      -0.048910487443208694,
      0.13878603279590607,
      -0.035255689173936844,
      -0.06762360036373138,
      -0.04854742810130119
    ],
    [
      -0.041584815829992294,
      -0.0074575431644916534,
      0.12878680229187012,
      0.20553064346313477,
      -0.20274919271469116,
      -0.04312003776431084,
      0.14551174640655518,
      -0.036015186458826065,
      -0.08913794159889221,
      -0.05976450815796852
    ],
    [
      -0.05196823179721832,
      0.02287301979959011,
      0.08571423590183258,
      0.2061070054769516,
      -0.19524185359477997,
      -0.009459768421947956,
      0.13356620073318481,
      -0.036076076328754425,
      -0.0849890187382698,
      -0.07052493095397949
    ],
    [
      -0.053264617919921875,
      0.021957673132419586,
      0.07771573960781097,
      0.16536970436573029,
      -0.15538685023784637,
      -0.0028392442036420107,
      0.12885822355747223,
      -0.030708981677889824,
      -0.08868080377578735,
      -0.06302133947610855
    ],
    [
      -0.0691157877445221,
      -0.024306634441018105,
      0.03396246209740639,
      0.12932783365249634,
      -0.11720425635576248,
      0.04652004316449165,
      0.16865983605384827,
      -0.026657136157155037,
      -0.09267669916152954,
      -0.048509303480386734
    ],
    [
      -0.09473951160907745,
      -0.04403844475746155,
      -0.050230253487825394,
      0.0875626876950264,
      -0.08103323727846146,
      0.09032272547483444,
      0.2146470993757248,
      -0.022343488410115242,
      -0.07033750414848328,
      -0.029810288920998573
    ],
    [
      -0.09864941984415054,
      -0.03921179100871086,
      -0.07744096964597702,
      0.04932406544685364,
      -0.028744857758283615,
      0.07896333932876587,
      0.22619351744651794,
      -0.01461674552410841,
      -0.07101090252399445,
      -0.0248064324259758
    ],
    [
      -0.07061874866485596,
      -0.044691067188978195,
      -0.09321101754903793,
      0.0329156294465065,
      -0.0047370670363307,
      0.07942117750644684,
      0.17027993500232697,
      -0.011063371784985065,
      -0.04027199372649193,
      -0.01802336424589157
    ],
    [
      -0.048619840294122696,
      -0.03382192552089691,
      -0.07461420446634293,
      -0.019072171300649643,
      -0.00044974603224545717,
      0.050177089869976044,
      0.15766030550003052,
      -0.005911281332373619,
      -0.015835067257285118,
      -0.009513156488537788
    ],
    [
      -0.03268394619226456,
      -0.024266783148050308,
      -0.0560934953391552,
      -0.025371752679347992,
      -0.0031784584280103445,
      0.017585940659046173,
      0.139239102602005,
      -0.0030207813251763582,
      -0.008032296784222126,
      -0.00417754054069519
    ],
    [
      -0.016958029940724373,
      -0.014607440680265427,
      -0.04050734266638756,
      -0.011818657629191875,
      0.0023058566730469465,
      -0.018748465925455093,
      0.10753753781318665,
      -0.0022501309867948294,
      -0.002385677071288228,
      -0.002567678689956665
    ],
    [
      -0.006027864292263985,
      -0.009507869370281696,
      -0.010718375444412231,
      -0.003614068729802966,
      -0.004566979594528675,
      -0.012565121054649353,
      0.05442439019680023,
      -0.0009544217609800398,
      -0.0052060289308428764,
      -0.0012636426836252213
    ],
    [
      -0.002371841808781028,
      -0.0023392383009195328,
      0.0019828258082270622,
      -0.0002704099752008915,
      -0.0025440894532948732,
      0.00695047527551651,
      -0.0004925808170810342,
      -2.13921503018355e-05,
      -0.0008120000711642206,
      -8.174851245712489e-05
    ],
    [
      -0.0005490774055942893,
      -0.003534753806889057,
      -8.955733210314065e-05,
      -9.469271390116774e-06,
      -0.00012236462498549372,
      0.001323052798397839,
      0.003492960939183831,
      -2.771764684439404e-07,
      -0.0005089449696242809,
      -1.5692182842030888e-06
    ],
    [
      0.0,
      0.0,
      0.0,
      0.0,
      0.0,
      0.0,
      0.0,
      0.0,
      0.0,
      0.0
    ],
    [
      0.0,
      0.0,
      0.0,
      0.0,
      0.0,
      0.0,
      0.0,
      0.0,
      0.0,
      0.0
    ],
    [
      -8.716243726780704e-09,
      -1.3844264401541295e-08,
      -2.63033393821388e-06,
      3.2875914257601835e-06,
      -4.1909448356136636e-08,
      -4.699045632605703e-07,
      -9.595479077972868e-09,
      -2.9811622059838783e-09,
      -1.0742241585148804e-07,
      -2.7565747462432455e-09
    ],
    [
      -3.4644826882868074e-06,
      0.0002699627657420933,
      -0.0001781820465112105,
      1.9606241039582528e-05,
      -3.4221554869873216e-06,
      -6.972490518819541e-05,
      -0.00012985615467187017,
      -4.908466507913545e-06,
      0.00010315705731045455,
      -3.167879867760348e-06
    ],
    [
      4.0455342968925834e-05,
      -1.3947675142844673e-05,
      -0.0010942025110125542,
      0.0027360799722373486,
      -0.0001836740120779723,
      -0.0011314760195091367,
      -0.000477535737445578,
      0.0004694584058597684,
      -0.0001626630109967664,
      -0.00018249523418489844
    ],
    [
      -0.00203112093731761,
      0.0008341959328390658,
      -0.008427521213889122,
      0.013453491032123566,
      0.005051294341683388,
      -0.008073480799794197,
      0.0016187024302780628,
      4.5274748117662966e-05,
      -0.0017338597681373358,
      -0.0007369710365310311
    ],
    [
      -0.0181611105799675,
      0.007237209938466549,
      0.0035020161885768175,
      0.05869261920452118,
      0.004959720186889172,
      -0.03771277144551277,
      -0.0038639733102172613,
      -0.0050382111221551895,
      -0.007651220541447401,
      -0.0019642552360892296
    ],
    [
      -0.026016421616077423,
      -0.0012690626317635179,
      0.03817153349518776,
      0.07804089039564133,
      -0.011601965874433517,
      -0.05251387879252434,
      0.004971128422766924,
      -0.006691725924611092,
      -0.01853068545460701,
      -0.004559773486107588
    ],
    [
      -0.027891218662261963,
      -0.02171822264790535,
      0.05709420517086983,
      0.10850007832050323,
      -0.023277079686522484,
      -0.06681946665048599,
      0.02705184370279312,
      -0.01509141270071268,
      -0.027266157791018486,
      -0.010582540184259415
    ],
    [
      -0.022944537922739983,
      -0.040547486394643784,
      0.11134278029203415,
      0.16384856402873993,
      -0.06489329040050507,
      -0.11979538202285767,
      0.04945216700434685,
      -0.030253788456320763,
      -0.02520294114947319,
      -0.021005835384130478
    ],
    [
      -0.021318716928362846,
      -0.05593201145529747,
      0.21519289910793304,
      0.18831555545330048,
      -0.10487086325883865,
      -0.12834501266479492,
      0.022209182381629944,
      -0.053195059299468994,
      -0.018471313640475273,
      -0.0435846708714962
    ],
    [
      -0.033421095460653305,
      -0.054475147277116776,
      0.25733453035354614,
      0.21752552688121796,
      -0.16343553364276886,
      -0.0998653843998909,
      0.039364635944366455,
      -0.07839003950357437,
      -0.021066483110189438,
      -0.06357091665267944
    ],
    [
      -0.026589427143335342,
      -0.05467277765274048,
      0.27303075790405273,
      0.2428683191537857,
      -0.18422114849090576,
      -0.06831464916467667,
      -0.004633335396647453,
      -0.09785645455121994,
      0.010293371044099331,
      -0.0899050310254097
    ],
    [
      -0.029393229633569717,
      0.020916970446705818,
      0.26112592220306396,
      0.24204814434051514,
      -0.20209451019763947,
      -0.09375022351741791,
      -0.028742782771587372,
      -0.12407595664262772,
      0.08010697364807129,
      -0.1261412501335144
    ],
    [
      -0.011506035923957825,
      0.10998901724815369,
      0.19305425882339478,
      0.2651692032814026,
      -0.21226507425308228,
      -0.1302904486656189,
      -0.023538462817668915,
      -0.14315111935138702,
      0.09643052518367767,
      -0.1438920497894287
    ],
    [
      -0.030925646424293518,
      0.1538635939359665,
      0.17841531336307526,
      0.2614189684391022,
      -0.2456945925951004,
      -0.08790997415781021,
      -0.04067877680063248,
      -0.15449103713035583,
      0.15480384230613708,
      -0.1888020932674408
    ],
    [
      -0.0069051822647452354,
      0.12433790415525436,
      0.1250859946012497,
      0.2313854992389679,
      -0.2395411878824234,
      0.03791169822216034,
      -0.036796391010284424,
      -0.15423165261745453,
      0.14202880859375,
      -0.22327572107315063
    ],
    [
      -0.04083023592829704,
      0.07797334343194962,
      0.11980404704809189,
      0.17657099664211273,
      -0.1705687791109085,
      0.08128620684146881,
      0.05830677971243858,
      -0.14299431443214417,
      0.07087989896535873,
      -0.2304280400276184
    ],
    [
      -0.03245295211672783,
      0.016152895987033844,
      0.07698211073875427,
      0.11306621879339218,
      -0.12307160347700119,
      0.11369054019451141,
      0.14421333372592926,
      -0.11897889524698257,
      -0.008092605508863926,
      -0.18150939047336578
    ],
    [
      -0.056109052151441574,
      -0.011235665529966354,
      0.008126736618578434,
      0.10640774667263031,
      -0.07049514353275299,
      0.13676109910011292,
      0.17582041025161743,
      -0.09793601185083389,
      -0.05092785134911537,
      -0.14041255414485931
    ],
    [
      -0.08578860759735107,
      0.05832719802856445,
      -0.06734098494052887,
      0.02252763882279396,
      -0.004163476638495922,
      0.06788648664951324,
      0.23140372335910797,
      -0.0732882171869278,
      -0.042893845587968826,
      -0.1066700890660286
    ],
    [
      -0.0775960385799408,
      0.06941694766283035,
      -0.0850694477558136,
      -0.05389042943716049,
      0.04380044713616371,
      -0.01643352583050728,
      0.2601020336151123,
      -0.055791616439819336,
      -0.008493085391819477,
      -0.0760454535484314
    ],
    [
      -0.06672356277704239,
      0.08211008459329605,
      -0.12857595086097717,
      -0.10266274213790894,
      0.0510195791721344,
      0.07584131509065628,
      0.24488899111747742,
      -0.037239715456962585,
      -0.058004774153232574,
      -0.060652948915958405
    ],
    [
      -0.047613952308893204,
      0.056442584842443466,
      -0.1287120133638382,
      -0.08550187200307846,
      0.06968122720718384,
      0.07269712537527084,
      0.21044345200061798,
      -0.026076646521687508,
      -0.08536728471517563,
      -0.03599267452955246
    ],
    [
      -0.05357231944799423,
      0.021231673657894135,
      -0.09605830162763596,
      -0.08109169453382492,
      0.07303550094366074,
      0.09277664124965668,
      0.13738764822483063,
      -0.012900909408926964,
      -0.06406320631504059,
      -0.016744961962103844
    ],
    [
      -0.04603574797511101,
      -0.018091483041644096,
      -0.04827779531478882,
      -0.022529808804392815,
      0.04021549969911575,
      0.07379421591758728,
      0.042292919009923935,
      -0.004398035351186991,
      -0.011295389384031296,
      -0.005674317479133606
    ],
    [
      -0.014238215982913971,
      -0.0169727373868227,
      -0.005863607861101627,
      -0.0019881536718457937,
      0.0067371344193816185,
      0.02155941165983677,
      0.007978299632668495,
      -0.0006887671770527959,
      0.004871495068073273,
      -0.001394851366057992
    ],
    [
      -0.0014139523264020681,
      -0.0023818465415388346,
      -0.000655500334687531,
      -6.381198909366503e-05,
      -0.0010890684789046645,
      0.0017636005068197846,
      0.001064993324689567,
      -9.467613563174382e-05,
      0.0031357004772871733,
      -0.0002654372074175626
    ],
    [
      -1.4717285921506118e-05,
      -0.0011774762533605099,
      -0.0005081674316897988,
      -6.7405803747533355e-06,
      -0.00042434089118614793,
      -0.0005051483167335391,
      0.0023994394578039646,
      -4.4771632019546814e-06,
      0.000261605076957494,
      -1.997662548092194e-05
    ],
    [
      0.0,
      0.0,
      0.0,
      0.0,
      0.0,
      0.0,
      0.0,
      0.0,
      0.0,
      0.0
    ],
    [
      0.0,
      0.0,
      0.0,
      0.0,
      0.0,
      0.0,
      0.0,
      0.0,
      0.0,
      0.0
    ],
    [
      -0.00012436328688636422,
      3.149123949697241e-05,
      0.000317020108923316,
      0.00019115406030323356,
      -1.708119634713512e-05,
      -0.00027274005697108805,
      -7.745075708953664e-05,
      -4.367229394119931e-06,
      -4.081051520188339e-05,
      -2.8524825665954268e-06
    ],
    [
      -0.00030637707095593214,
      0.0012694322504103184,
      0.0001172638003481552,
      0.014340848661959171,
      0.00014080401160754263,
      -0.006539216730743647,
      -0.005522875115275383,
      0.0003159289190080017,
      -0.0029741222970187664,
      -0.0008416855707764626
    ],
    [
      -0.007378208916634321,
      0.0023991812486201525,
      -0.0025844748597592115,
      0.051888398826122284,
      0.005559870507568121,
      -0.03413187339901924,
      1.030363819154445e-06,
      -0.0010332131059840322,
      -0.010688056237995625,
      -0.004032644908875227
    ],
    [
      -0.03205576539039612,
      0.012209687381982803,
      0.015353458002209663,
      0.12194176763296127,
      0.019297029823064804,
      -0.07322938740253448,
      -0.03147903084754944,
      0.010135367512702942,
      -0.02748277224600315,
      -0.014690316282212734
    ],
    [
      -0.041930247098207474,
      -0.01404490601271391,
      0.069610096514225,
      0.17220483720302582,
      0.02357562817633152,
      -0.10871460288763046,
      -0.026801496744155884,
      0.008474569767713547,
      -0.045387860387563705,
      -0.03698577359318733
    ],
    [
      -0.04551664739847183,
      -0.06290226429700851,
      0.1276916116476059,
      0.19993169605731964,
      0.003974243067204952,
      -0.09994247555732727,
      -0.009865176863968372,
      -0.005578633397817612,
      -0.0487736240029335,
      -0.059018850326538086
    ],
    [
      -0.04858434572815895,
      -0.12653373181819916,
      0.2113424390554428,
      0.1989057958126068,
      -0.007247952278703451,
      -0.10159476846456528,
      0.011952225118875504,
      -0.00849287398159504,
      -0.04799169674515724,
      -0.08175501972436905
    ],
    [
      -0.04294481873512268,
      -0.13768428564071655,
      0.2352956086397171,
      0.19544558227062225,
      -0.03306382894515991,
      -0.020632755011320114,
      -0.009557395242154598,
      -0.04162468761205673,
      -0.029105329886078835,
      -0.11612799763679504
    ],
    [
      0.007568446919322014,
      -0.10102274268865585,
      0.2561919391155243,
      0.18167252838611603,
      -0.11117519438266754,
      0.017787184566259384,
      -0.010199110023677349,
      -0.10497676581144333,
      -0.04552517458796501,
      -0.09032180160284042
    ],
    [
      0.018490884453058243,
      -0.06565860658884048,
      0.2667807340621948,
      0.12447010725736618,
      -0.1338551789522171,
      0.041112884879112244,
      -0.13306888937950134,
      -0.16654148697853088,
      0.08218252658843994,
      -0.033912889659404755
    ],
    [
      0.034356795251369476,
      0.02106260135769844,
      0.23357781767845154,
      0.08211960643529892,
      -0.1411629170179367,
      -0.016175489872694016,
      -0.12364743649959564,
      -0.2147751897573471,
      0.15921081602573395,
      -0.03456679359078407
    ],
    [
      0.10468664020299911,
      0.09861350059509277,
      0.22574932873249054,
      0.07305186241865158,
      -0.1811080425977707,
      -0.05912297964096069,
      -0.1453975886106491,
      -0.2722037434577942,
      0.17304779589176178,
      -0.017317626625299454
    ],
    [
      0.1207759901881218,
      0.13726963102817535,
      0.21027246117591858,
      0.05329074710607529,
      -0.09513060003519058,
      -0.09760108590126038,
      -0.06693049520254135,
      -0.3101625144481659,
      0.1693749725818634,
      -0.121159628033638
    ],
    [
      0.13778682053089142,
      0.11888278275728226,
      0.23539085686206818,
      0.11674115061759949,
      -0.0817139595746994,
      -0.10612980276346207,
      -0.0588865764439106,
      -0.3152642250061035,
      0.15977907180786133,
      -0.20658713579177856
    ],
    [
      0.1300727128982544,
      -0.009357276372611523,
      0.28625431656837463,
      0.14240999519824982,
      -0.010715369135141373,
      -0.01171890553086996,
      -0.05391627550125122,
      -0.2970769703388214,
      0.16398240625858307,
      -0.3399358093738556
    ],
    [
      0.1678386926651001,
      -0.08542638272047043,
      0.24454623460769653,
      0.013951047323644161,
      0.0007923430530354381,
      0.07094519585371017,
      0.009663738310337067,
      -0.278652161359787,
      0.18416225910186768,
      -0.3278209865093231
    ],
    [
      0.11720118671655655,
      -0.034281615167856216,
      0.12660452723503113,
      0.0010675208177417517,
      0.08057160675525665,
      0.0816006138920784,
      0.09909554570913315,
      -0.2447264939546585,
      0.059278301894664764,
      -0.2864113450050354
    ],
    [
      0.026131533086299896,
      0.050645824521780014,
      0.00281507452018559,
      -0.006592701189219952,
      0.10209579020738602,
      0.040322016924619675,
      0.1840166598558426,
      -0.22802947461605072,
      0.08221618086099625,
      -0.2536208927631378
    ],
    [
      -0.02441667765378952,
      0.12967027723789215,
      -0.032389648258686066,
      -0.07326075434684753,
      0.061245597898960114,
      0.09835533052682877,
      0.1689055860042572,
      -0.19491282105445862,
      0.06931168586015701,
      -0.20250838994979858
    ],
    [
      -0.006029432639479637,
      0.17717856168746948,
      -0.06095542013645172,
      -0.1492929458618164,
      0.08112514019012451,
      0.1299505978822708,
      0.14254280924797058,
      -0.13408245146274567,
      -0.016815535724163055,
      -0.16362100839614868
    ],
    [
      -0.007887091487646103,
      0.1567155122756958,
      -0.10011894255876541,
      -0.16264064610004425,
      0.13805192708969116,
      0.1924717277288437,
      0.10188469290733337,
      -0.09010015428066254,
      -0.08769983798265457,
      -0.14067699015140533
    ],
    [
      -0.08072670549154282,
      0.08385810256004333,
      -0.11051931232213974,
      -0.1427958905696869,
      0.18450789153575897,
      0.19809934496879578,
      0.10618703067302704,
      -0.04941149801015854,
      -0.09804551303386688,
      -0.0911535993218422
    ],
    [
      -0.0805601105093956,
      0.021942315623164177,
      -0.0782649889588356,
      -0.05379781499505043,
      0.08339719474315643,
      0.15983623266220093,
      0.04529353603720665,
      -0.018795359879732132,
      -0.0352795273065567,
      -0.04377160966396332
    ],
    [
      -0.03185892477631569,
      -0.027091052383184433,
      -0.020893296226859093,
      -0.009291846305131912,
      0.004967643413692713,
      0.07895766198635101,
      0.004358994774520397,
      -0.0059951478615403175,
      0.021368568763136864,
      -0.014522556215524673
    ],
    [
      -0.009264933876693249,
      -0.005140463821589947,
      -0.0030177426524460316,
      -0.001304619014263153,
      -0.004585871007293463,
      0.024514729157090187,
      0.004368040710687637,
      -0.0027078676503151655,
      -0.0006764554418623447,
      -0.0021848101168870926
    ],
    [
      -0.0021601964253932238,
      -0.0014409542782232165,
      -0.0007497327751480043,
      -3.764385837712325e-05,
      -6.99084484949708e-05,
      0.0017541232518851757,
      0.0035289183724671602,
      -6.437674164772034e-05,
      -0.0007387313526123762,
      -2.149776992155239e-05
    ],
    [
      0.0,
      0.0,
      0.0,
      0.0,
      0.0,
      0.0,
      0.0,
      0.0,
      0.0,
      0.0
    ],
    [
      -1.0116471003129845e-06,
      -5.369910809349676e-07,
      -4.322722816141322e-06,
      4.9640169891063124e-05,
      -1.80860794785076e-07,
      -8.627387614978943e-06,
      -7.656319667148637e-08,
      -1.9365595562703675e-06,
      -2.966225338241202e-06,
      -2.998120544361882e-05
    ],
    [
      -0.00046236737398430705,
      -0.0023583825677633286,
      -0.0010185138089582324,
      0.003080634865909815,
      -0.0008252888801507652,
      -0.0006715850904583931,
      -0.0006960396422073245,
      0.004964849911630154,
      -0.0009490952361375093,
      -0.0010642108973115683
    ],
    [
      -0.0017013875767588615,
      0.0005630477098748088,
      0.005294528789818287,
      0.033120326697826385,
      -0.006826608441770077,
      -0.02425931580364704,
      -0.011149776168167591,
      0.02089581824839115,
      -0.010352280922234058,
      -0.005584351252764463
    ],
    [
      -0.01428938191384077,
      0.0016229036264121532,
      0.019907884299755096,
      0.091175876557827,
      0.007808680180460215,
      -0.0629403367638588,
      -0.010480289347469807,
      0.014352760277688503,
      -0.024792032316327095,
      -0.02236603945493698
    ],
    [
      -0.031664084643125534,
      -0.01626332476735115,
      0.05372186377644539,
      0.1572534292936325,
      0.049252063035964966,
      -0.0895654559135437,
      -0.03840023651719093,
      0.030317116528749466,
      -0.041022639721632004,
      -0.07362864166498184
    ],
    [
      -0.043092332780361176,
      -0.04984672740101814,
      0.12431206554174423,
      0.19886279106140137,
      0.06796687096357346,
      -0.10227607935667038,
      -0.06512843817472458,
      0.051824238151311874,
      -0.06541009247303009,
      -0.11721227318048477
    ],
    [
      -0.05019702762365341,
      -0.10999932140111923,
      0.17818684875965118,
      0.1543281376361847,
      0.05565356835722923,
      -0.06495285034179688,
      -0.021530933678150177,
      0.05886370316147804,
      -0.039201900362968445,
      -0.16115054488182068
    ],
    [
      -0.05922311544418335,
      -0.17716571688652039,
      0.17265793681144714,
      0.1660429835319519,
      0.010298558510839939,
      -0.01818910427391529,
      -0.027010614052414894,
      0.09996476769447327,
      0.0008944724686443806,
      -0.16827045381069183
    ],
    [
      -0.06488949805498123,
      -0.21847864985466003,
      0.1919073462486267,
      0.17144407331943512,
      -0.017715664580464363,
      0.024342024698853493,
      -0.07218503206968307,
      0.0953439474105835,
      0.00354960304684937,
      -0.1133180633187294
    ],
    [
      -0.010164055973291397,
      -0.16123823821544647,
      0.1659531146287918,
      0.16294145584106445,
      -0.09941855818033218,
      0.06048709526658058,
      -0.1300361305475235,
      0.08833929896354675,
      -0.019695471972227097,
      -0.057169266045093536
    ],
    [
      0.012288318015635014,
      -0.08734098821878433,
      0.07128220796585083,
      0.10591994971036911,
      -0.18705233931541443,
      0.04786625877022743,
      -0.13733790814876556,
      0.0694182738661766,
      0.05329811945557594,
      0.05165765434503555
    ],
    [
      0.026339108124375343,
      -0.0703526958823204,
      0.06529398262500763,
      0.07953432947397232,
      -0.19499358534812927,
      0.011488856747746468,
      -0.10976865142583847,
      -0.003364627016708255,
      0.10793554037809372,
      0.0878872200846672
    ],
    [
      0.09960813820362091,
      -0.05578647926449776,
      0.10086590051651001,
      0.1460425853729248,
      -0.25837215781211853,
      -0.011894403956830502,
      -0.14610791206359863,
      -0.12743033468723297,
      0.02302241325378418,
      0.23005160689353943
    ],
    [
      0.10724491626024246,
      -0.07156523317098618,
      0.09515663981437683,
      0.12743166089057922,
      -0.30195218324661255,
      0.005195807199925184,
      -0.13180282711982727,
      -0.15606215596199036,
      0.06737715005874634,
      0.2589758038520813
    ],
    [
      0.09850248694419861,
      -0.1389012634754181,
      0.09333513677120209,
      0.13227073848247528,
      -0.251921683549881,
      -0.07065345346927643,
      -0.10850552469491959,
      -0.1357724368572235,
      0.1972440928220749,
      0.18440227210521698
    ],
    [
      0.1359422653913498,
      -0.17650888860225677,
      0.1239251047372818,
      0.1358793079853058,
      -0.20393995940685272,
      -0.06048993393778801,
      -0.1391601264476776,
      -0.11050225049257278,
      0.1420489400625229,
      0.15280453860759735
    ],
    [
      0.18452957272529602,
      -0.20737038552761078,
      0.10939274728298187,
      0.07059619575738907,
      -0.1580403745174408,
      0.0036151628009974957,
      -0.12174747884273529,
      -0.11353409290313721,
      0.10582403093576431,
      0.12673456966876984
    ],
    [
      0.17630840837955475,
      -0.10853410512208939,
      0.026035208255052567,
      0.1147436797618866,
      -0.13854046165943146,
      0.05971720814704895,
      -0.09552276879549026,
      -0.13965170085430145,
      0.0056515904143452644,
      0.09979248046875
    ],
    [
      0.08455692231655121,
      -0.03132830187678337,
      -0.06157756596803665,
      0.021554945036768913,
      -0.033576078712940216,
      0.0888860896229744,
      -0.03491564840078354,
      -0.13483795523643494,
      0.12700794637203217,
      -0.02577117457985878
    ],
    [
      0.06937851011753082,
      0.08494429290294647,
      -0.07738979160785675,
      0.01780972257256508,
      -0.01329161785542965,
      0.09597083181142807,
      -0.028217453509569168,
      -0.11265777051448822,
      0.08354818820953369,
      -0.12009535729885101
    ],
    [
      0.10991844534873962,
      0.10976218432188034,
      -0.05563443526625633,
      -0.06205837428569794,
      0.08361837267875671,
      0.08365805447101593,
      -0.03009861521422863,
      -0.07802677154541016,
      0.018765438348054886,
      -0.17990434169769287
    ],
    [
      0.1079905778169632,
      0.07582896202802658,
      -0.10556552559137344,
      -0.14048396050930023,
      0.22661130130290985,
      0.1879570633172989,
      -0.02885563112795353,
      -0.0949217826128006,
      -0.01112984586507082,
      -0.21743078529834747
    ],
    [
      -0.02346111088991165,
      0.016227010637521744,
      -0.14903631806373596,
      -0.16765852272510529,
      0.2692752778530121,
      0.2994394600391388,
      -0.0221382025629282,
      -0.08925176411867142,
      0.056158315390348434,
      -0.1895534247159958
    ],
    [
      -0.12008025497198105,
      -0.018424781039357185,
      -0.0886634811758995,
      -0.07160409539937973,
      0.10847046226263046,
      0.34492310881614685,
      -0.0123653095215559,
      -0.04587433487176895,
      0.010371076874434948,
      -0.10675196349620819
    ],
    [
      -0.07225164771080017,
      -0.03163203224539757,
      -0.03255310654640198,
      -0.020013457164168358,
      0.011727430857717991,
      0.19057795405387878,
      -0.012416692450642586,
      -0.02001553401350975,
      0.026371443644165993,
      -0.03979441896080971
    ],
    [
      -0.02602376788854599,
      -0.004415613133460283,
      -0.003857638221234083,
      -0.0030168965458869934,
      0.012766242027282715,
      0.056558895856142044,
      -0.010209187865257263,
      -0.0072887674905359745,
      -0.001797050703316927,
      -0.012716198340058327
    ],
    [
      -0.006281418260186911,
      -4.246151729603298e-05,
      -7.120932423276827e-05,
      -5.844078987138346e-05,
      -0.000294798199320212,
      0.009065895341336727,
      -0.0007341756718233228,
      -0.00027267049881629646,
      -0.001119261491112411,
      -0.00019145892292726785
    ],
    [
      0.0,
      0.0,
      0.0,
      0.0,
      0.0,
      0.0,
      0.0,
      0.0,
      0.0,
      0.0
    ],
    [
      -0.00010563846444711089,
      -6.981497426750138e-05,
      -0.00017896675853990018,
      0.001595255802385509,
      -0.00011484061542432755,
      -0.0003242775856051594,
      -5.62338245799765e-05,
      0.0008997812401503325,
      -0.0005191967939026654,
      -0.00112606817856431
    ],
    [
      -0.0008241926552727818,
      -0.0022720186971127987,
      0.0025741553399711847,
      -0.0002799454377964139,
      -0.0018413701327517629,
      -0.003906504716724157,
      -0.0020093920174986124,
      0.015936441719532013,
      -0.002441988093778491,
      -0.004935180302709341
    ],
    [
      -0.00375797669403255,
      -0.0033322139643132687,
      0.010702410712838173,
      0.04223022609949112,
      -0.0058184340596199036,
      -0.03894926980137825,
      -0.0148738082498312,
      0.04968142881989479,
      -0.012278735637664795,
      -0.02360358089208603
    ],
    [
      -0.0245689544826746,
      -0.005077038891613483,
      0.06134384870529175,
      0.151331827044487,
      0.014477570541203022,
      -0.13033008575439453,
      -0.01706111431121826,
      0.0331631600856781,
      -0.01688443496823311,
      -0.06639482825994492
    ],
    [
      -0.03677929937839508,
      -0.04053417593240738,
      0.10062754899263382,
      0.21349018812179565,
      0.06316652148962021,
      -0.14391390979290009,
      -0.05344768241047859,
      0.07015436887741089,
      -0.024142630398273468,
      -0.14862094819545746
    ],
    [
      -0.042134419083595276,
      -0.09414598345756531,
      0.18803063035011292,
      0.17413945496082306,
      0.050217289477586746,
      -0.11573093384504318,
      -0.08049003034830093,
      0.12247703224420547,
      -0.01615878753364086,
      -0.186204195022583
    ],
    [
      -0.062293726950883865,
      -0.1418493092060089,
      0.1361445188522339,
      0.09658954292535782,
      0.03723616898059845,
      -0.012542433105409145,
      -0.02896004356443882,
      0.1711397022008896,
      0.03358712047338486,
      -0.22905123233795166
    ],
    [
      -0.08695375919342041,
      -0.23025774955749512,
      0.11602269113063812,
      0.04316101595759392,
      -0.01698407717049122,
      0.08361486345529556,
      -0.04842004552483559,
      0.2131531983613968,
      0.07868034392595291,
      -0.15201668441295624
    ],
    [
      -0.017960797995328903,
      -0.24575340747833252,
      0.07050564140081406,
      0.05083026736974716,
      -0.06225309520959854,
      0.08274780213832855,
      -0.10290329158306122,
      0.23934340476989746,
      0.03749079257249832,
      -0.0520474910736084
    ],
    [
      0.011922856792807579,
      -0.2162693440914154,
      0.0417049340903759,
      0.054232846945524216,
      -0.16150923073291779,
      0.12842990458011627,
      -0.1372862309217453,
      0.23841813206672668,
      0.026733970269560814,
      0.013621451333165169
    ],
    [
      0.043235793709754944,
      -0.18352104723453522,
      0.03668976202607155,
      0.07184295356273651,
      -0.24111706018447876,
      0.1491001695394516,
      -0.11669811606407166,
      0.21332335472106934,
      -0.05566975846886635,
      0.08281376957893372
    ],
    [
      0.05459605157375336,
      -0.11231180280447006,
      -0.00435989536345005,
      0.10934703797101974,
      -0.32799410820007324,
      0.06004868447780609,
      -0.11865274608135223,
      0.18130141496658325,
      -0.05413736775517464,
      0.21216239035129547
    ],
    [
      0.05613710731267929,
      -0.12429939955472946,
      0.08901555836200714,
      0.1260969638824463,
      -0.31627562642097473,
      -0.043475400656461716,
      -0.16700351238250732,
      0.08141032606363297,
      -0.04681510105729103,
      0.3452076315879822
    ],
    [
      0.07033824175596237,
      -0.16487054526805878,
      0.06525218486785889,
      0.17851437628269196,
      -0.40964245796203613,
      0.026522492989897728,
      -0.16384272277355194,
      -0.009849636815488338,
      -0.08962894976139069,
      0.4972061514854431
    ],
    [
      0.08867345005273819,
      -0.23663212358951569,
      -0.0008048638701438904,
      0.18905852735042572,
      -0.4191100001335144,
      -0.07637102901935577,
      -0.15392208099365234,
      0.02973090298473835,
      0.07138863205909729,
      0.5079881548881531
    ],
    [
      0.12739123404026031,
      -0.18628577888011932,
      -0.0158374160528183,
      0.07808274030685425,
      -0.3850317597389221,
      0.029855279251933098,
      -0.21430405974388123,
      0.10839562118053436,
      0.016995716840028763,
      0.44073840975761414
    ],
    [
      0.20968134701251984,
      -0.16642411053180695,
      -0.07443228363990784,
      0.09427586942911148,
      -0.24222128093242645,
      0.06501388549804688,
      -0.2278199940919876,
      0.15962718427181244,
      -0.05900261923670769,
      0.2413015514612198
    ],
    [
      0.18959596753120422,
      -0.12899281084537506,
      -0.06804005801677704,
      0.040115538984537125,
      -0.23242375254631042,
      0.08505380153656006,
      -0.25067105889320374,
      0.1392955780029297,
      0.06315205991268158,
      0.16291415691375732
    ],
    [
      0.11085012555122375,
      -0.03509698808193207,
      -0.05036867782473564,
      0.08644869178533554,
      -0.14050224423408508,
      0.09592367708683014,
      -0.24504217505455017,
      0.08348303288221359,
      0.017391301691532135,
      0.076912060379982
    ],
    [
      0.04408365115523338,
      0.022757064551115036,
      -0.07085064798593521,
      0.0669543445110321,
      -0.11351339519023895,
      0.09000620245933533,
      -0.19605663418769836,
      0.07817543298006058,
      0.06043987721204758,
      0.018003974109888077
    ],
    [
      0.07913734763860703,
      0.003473795484751463,
      -0.017937101423740387,
      -0.022865191102027893,
      0.022870086133480072,
      0.10118912160396576,
      -0.18689629435539246,
      0.02103055827319622,
      0.08209851384162903,
      -0.08210098743438721
    ],
    [
      0.11946405470371246,
      -0.02325792983174324,
      -0.02628093585371971,
      -0.10115782916545868,
      0.18741530179977417,
      0.15334059298038483,
      -0.17892727255821228,
      0.004439979325979948,
      0.07589185237884521,
      -0.210927814245224
    ],
    [
      0.05169567093253136,
      -0.07609575241804123,
      -0.17192895710468292,
      -0.1691484898328781,
      0.2199474573135376,
      0.34006503224372864,
      -0.1226162314414978,
      -0.03294104337692261,
      0.19007430970668793,
      -0.22905203700065613
    ],
    [
      -0.0869278609752655,
      -0.10567374527454376,
      -0.11893113702535629,
      -0.11095345765352249,
      0.07802114635705948,
      0.4612691402435303,
      -0.0413956455886364,
      -0.0578140951693058,
      0.13461773097515106,
      -0.1522119790315628
    ],
    [
      -0.09195449948310852,
      -0.05521608144044876,
      -0.03745602071285248,
      -0.028655504807829857,
      0.000483436684589833,
      0.3380943834781647,
      -0.035685986280441284,
      -0.03492555022239685,
      0.005442115478217602,
      -0.06012663617730141
    ],
    [
      -0.03271440416574478,
      -0.004378295503556728,
      -0.005784635432064533,
      -0.0025618798099458218,
      0.008026394993066788,
      0.0780290737748146,
      -0.01126415841281414,
      -0.0066978842951357365,
      -0.005388164427131414,
      -0.01726597361266613
    ],
    [
      -0.002005611313506961,
      -0.0013824785128235817,
      -0.00018647835531737655,
      -8.72698292369023e-05,
      -0.00045693342690356076,
      0.007136431988328695,
      -0.0022895282600075006,
      -0.00027405848959460855,
      2.3500684619648382e-05,
      -0.00047757415450178087
    ],
    [
      0.002054551849141717,
      -2.726650336626335e-06,
      -8.530108607374132e-05,
      -1.054075710271718e-06,
      -6.33454619674012e-05,
      -9.699221664050128e-06,
      -2.4567358195781708e-05,
      -0.0011115986853837967,
      -1.7284060959354974e-05,
      -0.0007389752427116036
    ],
    [
      -0.00048117313417606056,
      -0.0001603196724317968,
      0.000639634148683399,
      -0.00067207554820925,
      -0.003033257322385907,
      -0.0006203843513503671,
      -0.0005282083875499666,
      0.010054320096969604,
      -0.0009437385597266257,
      -0.004254794679582119
    ],
    [
      -0.0014372662408277392,
      -0.0017780903726816177,
      0.001495516044087708,
      -0.0010608677985146642,
      -0.004762824159115553,
      -0.006303058005869389,
      -0.0027189175598323345,
      0.03773004189133644,
      -0.004493165761232376,
      -0.01667141169309616
    ],
    [
      -0.006413845811039209,
      -0.0030851815827190876,
      0.013204341754317284,
      0.04006435349583626,
      -0.012544378638267517,
      -0.045318059623241425,
      -0.015408381819725037,
      0.09889568388462067,
      -0.005805911496281624,
      -0.06358856707811356
    ],
    [
      -0.03545280918478966,
      -0.011006135493516922,
      0.07955607026815414,
      0.16977737843990326,
      -0.003104954259470105,
      -0.17319859564304352,
      -0.021738512441515923,
      0.09505482017993927,
      0.004465940874069929,
      -0.10435314476490021
    ],
    [
      -0.05056481063365936,
      -0.04222298413515091,
      0.11544720083475113,
      0.1788027286529541,
      0.03798165172338486,
      -0.17244818806648254,
      -0.07416607439517975,
      0.12911935150623322,
      0.029753904789686203,
      -0.15170232951641083
    ],
    [
      -0.05233609303832054,
      -0.10016126185655594,
      0.1413666009902954,
      0.13746929168701172,
      0.0016267746686935425,
      -0.12823894619941711,
      -0.1020180806517601,
      0.14407794177532196,
      0.09765301644802094,
      -0.1394394338130951
    ],
    [
      -0.07341610640287399,
      -0.14614859223365784,
      0.10789461433887482,
      0.07469630241394043,
      -0.012736130505800247,
      -0.03843727335333824,
      -0.0657305121421814,
      0.2127608060836792,
      0.11890628188848495,
      -0.17778901755809784
    ],
    [
      -0.0496603287756443,
      -0.2322777658700943,
      0.08338364958763123,
      0.029162675142288208,
      -0.07150427997112274,
      0.08414581418037415,
      -0.07870972901582718,
      0.2058698534965515,
      0.062105681747198105,
      -0.032515596598386765
    ],
    [
      0.013038985431194305,
      -0.27821969985961914,
      0.09049393236637115,
      0.03853026032447815,
      -0.047987762838602066,
      0.06208166852593422,
      -0.11222993582487106,
      0.18286944925785065,
      0.09997254610061646,
      -0.04854979366064072
    ],
    [
      0.014392622746527195,
      -0.2581552565097809,
      0.1748945116996765,
      0.04293929412961006,
      -0.14822585880756378,
      0.09501568228006363,
      -0.13402923941612244,
      0.1591286063194275,
      0.07599977403879166,
      -0.021960744634270668
    ],
    [
      0.025067167356610298,
      -0.1900959014892578,
      0.13779063522815704,
      -0.011125244200229645,
      -0.18438000977039337,
      0.1474098414182663,
      -0.10532105714082718,
      0.2308214008808136,
      0.006343070883303881,
      -0.056510236114263535
    ],
    [
      0.06558584421873093,
      -0.09486906230449677,
      0.04988012835383415,
      -0.0015754925552755594,
      -0.21329383552074432,
      0.04751640558242798,
      -0.14428196847438812,
      0.23326009511947632,
      0.120867058634758,
      -0.0630897730588913
    ],
    [
      0.03586801514029503,
      -0.0535743273794651,
      0.05484500899910927,
      0.104183129966259,
      -0.24802398681640625,
      -0.045592013746500015,
      -0.21554701030254364,
      0.12481514364480972,
      0.10756939649581909,
      0.135456383228302
    ],
    [
      0.09476269036531448,
      -0.0355742871761322,
      0.10685775429010391,
      0.22088144719600677,
      -0.41911953687667847,
      -0.11733917891979218,
      -0.22030310332775116,
      0.15599969029426575,
      -0.07604751735925674,
      0.289882093667984
    ],
    [
      0.1449134796857834,
      0.01564650982618332,
      0.08651408553123474,
      0.21501277387142181,
      -0.4467746913433075,
      -0.18445661664009094,
      -0.25415539741516113,
      0.23639540374279022,
      -0.06305874139070511,
      0.2499629110097885
    ],
    [
      0.2595052123069763,
      -0.058112725615501404,
      0.04217023402452469,
      0.09790830314159393,
      -0.3578651249408722,
      -0.10817812383174896,
      -0.31080004572868347,
      0.2661094665527344,
      0.013510476797819138,
      0.1557513177394867
    ],
    [
      0.2495187222957611,
      0.011870676651597023,
      -0.004524012096226215,
      0.1077069491147995,
      -0.18255819380283356,
      -0.04812788963317871,
      -0.3742538392543793,
      0.23289930820465088,
      -0.01647118665277958,
      0.023939430713653564
    ],
    [
      0.1943455934524536,
      -0.06488590687513351,
      -0.052360620349645615,
      0.15373943746089935,
      -0.1364908665418625,
      -0.04615657404065132,
      -0.43547001481056213,
      0.2521657347679138,
      0.09638530015945435,
      0.03872832655906677
    ],
    [
      0.1277793049812317,
      -0.07564195990562439,
      0.022333646193146706,
      0.11731322109699249,
      -0.10483139753341675,
      0.02697904407978058,
      -0.3919883966445923,
      0.181076779961586,
      0.1306578367948532,
      -0.03367796912789345
    ],
    [
      0.08448365330696106,
      -0.09906560182571411,
      -0.02435038425028324,
      0.12172084301710129,
      -0.07446571439504623,
      0.1026582419872284,
      -0.2977067232131958,
      0.15554215013980865,
      0.06347554922103882,
      -0.03229237720370293
    ],
    [
      0.06129490211606026,
      -0.13448557257652283,
      -0.02351316437125206,
      0.0959785208106041,
      -0.0010762987658381462,
      0.09775196015834808,
      -0.26072660088539124,
      0.05592801794409752,
      0.09164903312921524,
      0.017199378460645676
    ],
    [
      0.14828908443450928,
      -0.1557881385087967,
      -0.04901915788650513,
      0.019055310636758804,
      0.059106502681970596,
      0.16373318433761597,
      -0.25635430216789246,
      0.059149857610464096,
      0.16006684303283691,
      -0.14823950827121735
    ],
    [
      0.14611002802848816,
      -0.18797023594379425,
      -0.10520625114440918,
      -0.18944516777992249,
      0.07269195467233658,
      0.4595012664794922,
      -0.19552762806415558,
      -0.007415590342134237,
      0.21719220280647278,
      -0.20993055403232574
    ],
    [
      -0.039073288440704346,
      -0.15797923505306244,
      -0.1410970240831375,
      -0.14266043901443481,
      0.0028163110837340355,
      0.6546104550361633,
      -0.10919922590255737,
      -0.07690510898828506,
      0.15789180994033813,
      -0.14840450882911682
    ],
    [
      -0.09941201657056808,
      -0.06686796247959137,
      -0.05124497413635254,
      -0.03690312057733536,
      -0.017129307612776756,
      0.438189834356308,
      -0.06058139726519585,
      -0.04791807755827904,
      0.009074801579117775,
      -0.06720764189958572
    ],
    [
      -0.028372297063469887,
      -0.008176324889063835,
      -0.007410292513668537,
      -0.003296750597655773,
      -0.01846720650792122,
      0.11028572916984558,
      -0.02579260990023613,
      -0.0112965889275074,
      0.007903952151536942,
      -0.015377634204924107
    ],
    [
      -0.0017219667788594961,
      -0.0011515681399032474,
      -0.0004566391580738127,
      -3.530042158672586e-05,
      -0.000957774871494621,
      0.006914230994880199,
      -0.002085423329845071,
      -0.0019070878624916077,
      0.0023295918945223093,
      -0.0009280621889047325
    ],
    [
      -1.4687021575809922e-05,
      -1.2029657227685675e-05,
      -1.166402125818422e-05,
      -9.303338447352871e-05,
      -0.0002786387922242284,
      -3.5681827284861356e-05,
      -2.1621650375891477e-05,
      0.0009422261500731111,
      -2.584211870271247e-05,
      -0.00044902763329446316
    ],
    [
      -0.0004751264350488782,
      -0.00020740344189107418,
      -0.00032661244040355086,
      -0.0010536533081904054,
      -0.0038480453658849,
      -0.0009654731838963926,
      -0.0006052394164726138,
      0.014562996104359627,
      -0.0008648430230095983,
      -0.0062166014686226845
    ],
    [
      -0.0012638303451240063,
      -0.0013438540045171976,
      0.0033108722418546677,
      0.004696439020335674,
      -0.006944845896214247,
      -0.004697627387940884,
      -0.0030748038552701473,
      0.042794693261384964,
      -0.008568578399717808,
      -0.02490844391286373
    ],
    [
      -0.005226670298725367,
      -0.003492704825475812,
      0.022972051054239273,
      0.044612444937229156,
      -0.03453041985630989,
      -0.04651594161987305,
      -0.018317852169275284,
      0.12543785572052002,
      -0.00885795895010233,
      -0.07608067989349365
    ],
    [
      -0.03193502500653267,
      -0.01866086758673191,
      0.07157615572214127,
      0.15920422971248627,
      -0.05308665707707405,
      -0.14581570029258728,
      -0.03223339840769768,
      0.17316272854804993,
      0.01867307908833027,
      -0.1408846229314804
    ],
    [
      -0.04988653585314751,
      -0.06386447697877884,
      0.15138357877731323,
      0.11287397146224976,
      -0.025841951370239258,
      -0.15281593799591064,
      -0.09024277329444885,
      0.15524762868881226,
      0.0705537497997284,
      -0.10740724205970764
    ],
    [
      -0.06390313804149628,
      -0.09283938258886337,
      0.07136490195989609,
      0.07087775319814682,
      -0.06858433037996292,
      -0.07413137704133987,
      -0.0877368226647377,
      0.10512124001979828,
      0.1440359503030777,
      -0.004204847384244204
    ],
    [
      -0.06703480333089828,
      -0.11560309678316116,
      0.006543554365634918,
      0.022710314020514488,
      -0.04732341319322586,
      0.03498285263776779,
      -0.03686768189072609,
      0.09503567963838577,
      0.13983842730522156,
      -0.032281551510095596
    ],
    [
      -0.03299298509955406,
      -0.17897790670394897,
      -0.024174675345420837,
      -0.03741469606757164,
      -0.045979443937540054,
      0.13718892633914948,
      -0.04679204151034355,
      0.07459215819835663,
      0.13205116987228394,
      0.02249935455620289
    ],
    [
      0.012861186638474464,
      -0.2269897609949112,
      0.07769505679607391,
      -0.10696566104888916,
      -0.014129952527582645,
      0.11278720200061798,
      -0.09751032292842865,
      0.058598052710294724,
      0.1754496544599533,
      0.00820419006049633
    ],
    [
      0.035683710128068924,
      -0.19841726124286652,
      0.14088594913482666,
      -0.20407287776470184,
      -0.10319213569164276,
      0.2026708722114563,
      -0.11182858794927597,
      0.04900278151035309,
      0.142625629901886,
      0.04664155840873718
    ],
    [
      -0.010919783264398575,
      -0.12080120295286179,
      0.09933143854141235,
      -0.3281180262565613,
      -0.11782798916101456,
      0.2842320501804352,
      -0.1043567955493927,
      0.14927618205547333,
      0.11092747747898102,
      0.0382559560239315
    ],
    [
      0.015080482698976994,
      -0.06575997173786163,
      0.05656411498785019,
      -0.23926350474357605,
      -0.08794669061899185,
      0.17261263728141785,
      -0.14381565153598785,
      0.1962704062461853,
      0.07237105816602707,
      0.023887187242507935
    ],
    [
      0.0708785206079483,
      0.04675033316016197,
      0.05041716247797012,
      -0.04435417428612709,
      -0.1593732386827469,
      0.01948402263224125,
      -0.1942717581987381,
      0.17282851040363312,
      0.008919281885027885,
      0.0287210401147604
    ],
    [
      0.04441199079155922,
      0.20505157113075256,
      0.09368924051523209,
      0.22114074230194092,
      -0.4763168692588806,
      -0.1536685675382614,
      -0.15512213110923767,
      0.2655811011791229,
      -0.18268437683582306,
      0.13791650533676147
    ],
    [
      0.031306419521570206,
      0.31090638041496277,
      0.12824203073978424,
      0.2847144901752472,
      -0.39839044213294983,
      -0.26513051986694336,
      -0.27410662174224854,
      0.34253039956092834,
      -0.2841266989707947,
      0.12405458092689514
    ],
    [
      0.14450916647911072,
      0.13586921989917755,
      0.1380239725112915,
      0.21310482919216156,
      -0.12515446543693542,
      -0.29119187593460083,
      -0.41304880380630493,
      0.3802071511745453,
      -0.16155830025672913,
      -0.02076125331223011
    ],
    [
      0.23066312074661255,
      0.01647867076098919,
      0.05819623917341232,
      0.153054341673851,
      -0.037744004279375076,
      -0.22227449715137482,
      -0.48721325397491455,
      0.3320774734020233,
      -0.013885554857552052,
      -0.029352936893701553
    ],
    [
      0.234737828373909,
      -0.08651665598154068,
      0.05361687391996384,
      0.13133098185062408,
      -0.0379352942109108,
      -0.14378203451633453,
      -0.48827940225601196,
      0.24490799009799957,
      0.09026097506284714,
      0.0016573653556406498
    ],
    [
      0.19222530722618103,
      -0.15802888572216034,
      0.012905167415738106,
      0.1391453742980957,
      -0.06301362812519073,
      -0.04449165612459183,
      -0.4284057021141052,
      0.25039905309677124,
      0.1159890815615654,
      -0.016724105924367905
    ],
    [
      0.11813747137784958,
      -0.21030490100383759,
      -0.03018784523010254,
      0.2011684775352478,
      -0.03309789299964905,
      0.039062269032001495,
      -0.3331175744533539,
      0.15203389525413513,
      0.08149110525846481,
      0.014814874157309532
    ],
    [
      0.05430968105792999,
      -0.2265179306268692,
      -0.05586346611380577,
      0.15718339383602142,
      -0.012277252972126007,
      0.17157959938049316,
      -0.2769921123981476,
      0.15556003153324127,
      0.09534886479377747,
      -0.06233111023902893
    ],
    [
      0.132858544588089,
      -0.23305179178714752,
      -0.029287781566381454,
      0.07572649419307709,
      -0.03910493105649948,
      0.2780746817588806,
      -0.28434881567955017,
      0.07106052339076996,
      0.15650847554206848,
      -0.12843555212020874
    ],
    [
      0.21396587789058685,
      -0.20861443877220154,
      -0.10836711525917053,
      -0.11530370265245438,
      -0.07695431262254715,
      0.536248505115509,
      -0.19030269980430603,
      -0.05984972417354584,
      0.18164069950580597,
      -0.17246359586715698
    ],
    [
      0.03755737468600273,
      -0.1369958072900772,
      -0.1416088342666626,
      -0.11840832233428955,
      -0.13730654120445251,
      0.7694125175476074,
      -0.12836843729019165,
      -0.07783712446689606,
      0.06818752735853195,
      -0.13463181257247925
    ],
    [
      -0.0923626720905304,
      -0.05878301337361336,
      -0.0434386320412159,
      -0.025088706985116005,
      -0.08663809299468994,
      0.509453296661377,
      -0.09147725999355316,
      -0.0381343849003315,
      -0.010407323017716408,
      -0.06312276422977448
    ],
    [
      -0.028254607692360878,
      -0.007253915537148714,
      -0.005220241844654083,
      -0.004013430327177048,
      -0.025311198085546494,
      0.10898404568433762,
      -0.032417912036180496,
      -0.0073381830006837845,
      0.021013330668210983,
      -0.020187856629490852
    ],
    [
      -0.0007185498834587634,
      -0.00039733422454446554,
      -0.00039611951797269285,
      -8.125701424432918e-05,
      -0.0020854363683611155,
      0.007570499088615179,
      -0.0017973161302506924,
      0.0029083469416946173,
      -0.003720648121088743,
      -0.0012821831041947007
    ],
    [
      -1.76377816387685e-05,
      -1.401100234943442e-05,
      -1.4216388990462292e-05,
      -0.00011379492207197472,
      -0.00032502811518497765,
      -4.367957808426581e-05,
      -2.516576751077082e-05,
      0.0012176822638139129,
      -3.1107927497942e-05,
      -0.0006330405594781041
    ],
    [
      -0.00019122223602607846,
      -0.00014851658488623798,
      -0.00017831982404459268,
      -0.0009793888311833143,
      -0.0032730584498494864,
      -0.0008358699851669371,
      -0.00025719116092659533,
      0.012960884720087051,
      -0.00048801329103298485,
      -0.006609299685806036
    ],
    [
      0.0036250432021915913,
      -0.000729695544578135,
      0.0025140016805380583,
      0.0029807507526129484,
      -0.011956876143813133,
      -0.004279425833374262,
      -0.005873765796422958,
      0.052155617624521255,
      -0.007468534633517265,
      -0.03096708282828331
    ],
    [
      -0.00716848811134696,
      -0.00775702390819788,
      0.02513749711215496,
      0.060695864260196686,
      -0.0386030375957489,
      -0.038777582347393036,
      -0.018597092479467392,
      0.11997653543949127,
      -0.021977970376610756,
      -0.07292861491441727
    ],
    [
      -0.03149158135056496,
      -0.017392637208104134,
      0.00671464204788208,
      0.067247673869133,
      -0.049427974969148636,
      -0.07222625613212585,
      -0.041083965450525284,
      0.1996852308511734,
      0.044390272349119186,
      -0.10641536116600037
    ],
    [
      -0.0412588007748127,
      -0.05895600467920303,
      0.04368966817855835,
      -0.014489959925413132,
      -0.06773067265748978,
      -0.07209406048059464,
      -0.06984919309616089,
      0.1834031194448471,
      0.09212806820869446,
      0.005157893057912588
    ],
    [
      -0.058928217738866806,
      -0.09904073923826218,
      0.005990634672343731,
      -0.0785946398973465,
      -0.08663445711135864,
      0.023247860372066498,
      -0.05462239310145378,
      0.0748453140258789,
      0.1685628592967987,
      0.10517376661300659
    ],
    [
      -0.04144652560353279,
      -0.11234733462333679,
      -0.1320476531982422,
      -0.17106515169143677,
      -0.042945776134729385,
      0.15077364444732666,
      0.008291041478514671,
      0.06898318976163864,
      0.20213261246681213,
      0.06967216730117798
    ],
    [
      -0.03313663601875305,
      -0.13436028361320496,
      -0.11440970748662949,
      -0.29598745703697205,
      -0.002331735100597143,
      0.21774037182331085,
      0.010758768767118454,
      -0.0008259983151219785,
      0.20859023928642273,
      0.14396187663078308
    ],
    [
      -0.002217348664999008,
      -0.17205706238746643,
      -0.13289909064769745,
      -0.3874490559101105,
      0.10856615006923676,
      0.251680850982666,
      -0.03833424299955368,
      0.05231686308979988,
      0.22854946553707123,
      0.09184354543685913
    ],
    [
      -0.03812769800424576,
      -0.12333760410547256,
      -0.12475024163722992,
      -0.4323279857635498,
      0.04787176474928856,
      0.2666919231414795,
      -0.023187261074781418,
      0.04996947944164276,
      0.22464177012443542,
      0.15255503356456757
    ],
    [
      -0.01073233038187027,
      -0.07729347795248032,
      -0.14080792665481567,
      -0.4338928163051605,
      0.049117185175418854,
      0.28118401765823364,
      -0.06179658696055412,
      0.009075590409338474,
      0.17709922790527344,
      0.20804667472839355
    ],
    [
      0.004063366912305355,
      0.0003682653186842799,
      -0.1989348828792572,
      -0.32030683755874634,
      0.11623556166887283,
      0.2634105086326599,
      -0.10829436033964157,
      0.0012194723822176456,
      0.14554350078105927,
      0.09669528901576996
    ],
    [
      0.024891233071684837,
      0.16999904811382294,
      -0.24935409426689148,
      0.006372515112161636,
      -0.17905887961387634,
      0.1601247489452362,
      -0.06469900906085968,
      0.16874879598617554,
      0.04172337427735329,
      -0.07874765247106552
    ],
    [
      -0.051338694989681244,
      0.44317367672920227,
      -0.11654920130968094,
      0.2334989756345749,
      -0.5360743999481201,
      0.02612161450088024,
      -0.16558657586574554,
      0.28104403614997864,
      -0.10181077569723129,
      -0.012478170916438103
    ],
    [
      -0.1261998862028122,
      0.5260046720504761,
      -0.06929229944944382,
      0.21315453946590424,
      -0.25130710005760193,
      -0.11466401815414429,
      -0.3360348343849182,
      0.4269591271877289,
      -0.23083460330963135,
      -0.037785254418849945
    ],
    [
      -0.07158278673887253,
      0.19602598249912262,
      0.016030192375183105,
      0.21809178590774536,
      0.01558699645102024,
      -0.21858914196491241,
      -0.4006669223308563,
      0.49095243215560913,
      -0.24573205411434174,
      -0.00011688063386827707
    ],
    [
      0.11436665803194046,
      0.012205027975142002,
      0.047631699591875076,
      0.17134875059127808,
      0.06414177268743515,
      -0.2906339764595032,
      -0.40596267580986023,
      0.34989580512046814,
      -0.12650077044963837,
      0.06350696831941605
    ],
    [
      0.1785733848810196,
      -0.13609829545021057,
      0.056996457278728485,
      0.13387280702590942,
      -0.040082402527332306,
      -0.2639769911766052,
      -0.3741401135921478,
      0.28123119473457336,
      0.10151711106300354,
      0.06210707128047943
    ],
    [
      0.14135152101516724,
      -0.19310244917869568,
      0.014277327805757523,
      0.17839814722537994,
      -0.010288480669260025,
      -0.19810838997364044,
      -0.3342297673225403,
      0.2542777955532074,
      0.11832785606384277,
      0.029096677899360657
    ],
    [
      0.14062395691871643,
      -0.24681060016155243,
      -0.028132444247603416,
      0.22213152050971985,
      -0.1023225262761116,
      -0.08559781312942505,
      -0.25057661533355713,
      0.23357850313186646,
      0.04157957807183266,
      0.07552625238895416
    ],
    [
      0.10274478793144226,
      -0.22259952127933502,
      -0.049451734870672226,
      0.12516488134860992,
      -0.08261708170175552,
      0.010741863399744034,
      -0.2076932191848755,
      0.22375904023647308,
      0.07589119672775269,
      0.024060171097517014
    ],
    [
      0.18881283700466156,
      -0.19188149273395538,
      -0.03802081197500229,
      0.011054846458137035,
      -0.12765440344810486,
      0.09205262362957001,
      -0.1850099116563797,
      0.10545244812965393,
      0.1774163544178009,
      -0.03222287818789482
    ],
    [
      0.27961868047714233,
      -0.16020207107067108,
      -0.08539043366909027,
      -0.0875643640756607,
      -0.20147714018821716,
      0.33433622121810913,
      -0.09312622994184494,
      -0.07494021207094193,
      0.1796397864818573,
      -0.090894415974617
    ],
    [
      0.11317525804042816,
      -0.10902461409568787,
      -0.09530903398990631,
      -0.07729995995759964,
      -0.1598385125398636,
      0.5866893529891968,
      -0.09235920757055283,
      -0.08212646842002869,
      0.03859668970108032,
      -0.1225036010146141
    ],
    [
      -0.07745233178138733,
      -0.03899644687771797,
      -0.028972983360290527,
      -0.014912819489836693,
      -0.09785034507513046,
      0.4601130485534668,
      -0.09883205592632294,
      -0.0325002558529377,
      -0.015019573271274567,
      -0.05557597056031227
    ],
    [
      -0.03165706247091293,
      -0.006260677706450224,
      0.00019677536329254508,
      -0.0024740181397646666,
      -0.026008155196905136,
      0.11656781286001205,
      -0.031762611120939255,
      -0.006601684261113405,
      0.005879523232579231,
      -0.017879897728562355
    ],
    [
      -0.0003824977611657232,
      0.00016004177450668067,
      -0.0003372335049789399,
      -3.235079566366039e-05,
      -0.0008725253865122795,
      0.005879353731870651,
      -0.005017431918531656,
      0.00010338819993194193,
      0.003912960644811392,
      -0.0034137037582695484
    ],
    [
      -6.110649792390177e-06,
      -2.102771304635098e-06,
      -3.888359060510993e-06,
      -2.6251262170262635e-05,
      -4.0429134969599545e-05,
      -2.235531428596005e-05,
      -2.880520696635358e-06,
      0.00045780837535858154,
      -1.3096568181936163e-05,
      -0.0003406933683436364
    ],
    [
      0.0004757095011882484,
      0.00023944012355059385,
      -0.00028168983408249915,
      -0.0012094667181372643,
      -0.006094947922974825,
      -0.001647435943596065,
      -0.0002498194808140397,
      0.02031806670129299,
      -0.0006218363996595144,
      -0.0109280189499259
    ],
    [
      -0.0017115847440436482,
      -0.00017008758732117712,
      -0.0012423190055415034,
      0.003482997650280595,
      -0.030410591512918472,
      -0.0046667857095599174,
      -0.0007907010731287301,
      0.08462308347225189,
      -0.005567372776567936,
      -0.0435466431081295
    ],
    [
      -0.009131417609751225,
      -0.0049461908638477325,
      -0.006869193632155657,
      0.04724481701850891,
      -0.030595146119594574,
      -0.03484700992703438,
      -0.017701061442494392,
      0.13817937672138214,
      -0.014764698222279549,
      -0.06656934320926666
    ],
    [
      -0.06285347044467926,
      -0.006851848214864731,
      -0.040412094444036484,
      0.016351211816072464,
      -0.06175580248236656,
      -0.03183918073773384,
      -0.027586879208683968,
      0.2074369490146637,
      0.018294041976332664,
      -0.010782897472381592
    ],
    [
      -0.058437176048755646,
      -0.03214842081069946,
      -0.1171383187174797,
      -0.12331704795360565,
      -0.0592242106795311,
      0.00210594548843801,
      -0.016136497259140015,
      0.13235008716583252,
      0.12089399993419647,
      0.15105144679546356
    ],
    [
      -0.020805664360523224,
      -0.08130025863647461,
      -0.22714488208293915,
      -0.2413356602191925,
      -0.02344958670437336,
      0.1404140740633011,
      0.005171171389520168,
      0.057998187839984894,
      0.18852317333221436,
      0.2019294649362564
    ],
    [
      0.00488700345158577,
      -0.11099490523338318,
      -0.3358982801437378,
      -0.3593074083328247,
      0.03540726751089096,
      0.16312333941459656,
      0.0749320238828659,
      0.08557474613189697,
      0.287180095911026,
      0.1550961285829544
    ],
    [
      -0.01859191060066223,
      -0.12778572738170624,
      -0.36608803272247314,
      -0.4021362066268921,
      0.12552472949028015,
      0.15913796424865723,
      0.0651528388261795,
      0.025198224931955338,
      0.2769663333892822,
      0.262622207403183
    ],
    [
      -0.039943646639585495,
      -0.1700386106967926,
      -0.3755297064781189,
      -0.36821138858795166,
      0.2146681547164917,
      0.1507895290851593,
      0.0665787011384964,
      0.10575781017541885,
      0.27367356419563293,
      0.14225482940673828
    ],
    [
      -0.0460168793797493,
      -0.1690889149904251,
      -0.43864601850509644,
      -0.2952391803264618,
      0.24896855652332306,
      0.18208454549312592,
      0.03781907260417938,
      0.10517815500497818,
      0.15981453657150269,
      0.21512570977210999
    ],
    [
      -0.03032032959163189,
      -0.17619965970516205,
      -0.43566662073135376,
      -0.20534852147102356,
      0.24364225566387177,
      0.22061003744602203,
      0.01235789991915226,
      0.06841612607240677,
      0.1262487769126892,
      0.1762603223323822
    ],
    [
      -0.02094600722193718,
      -0.05628396198153496,
      -0.5222136974334717,
      -0.08177679777145386,
      0.22380521893501282,
      0.2908557951450348,
      0.05321364104747772,
      -0.016450773924589157,
      0.1673181802034378,
      -0.037521842867136
    ],
    [
      -0.05111217498779297,
      0.20159776508808136,
      -0.5581441521644592,
      0.11076361685991287,
      -0.2873970866203308,
      0.33588287234306335,
      0.04070943966507912,
      0.04170776903629303,
      0.2584537863731384,
      -0.09246150404214859
    ],
    [
      -0.2624336779117584,
      0.6042961478233337,
      -0.4130527675151825,
      0.18446728587150574,
      -0.47743767499923706,
      0.11379468441009521,
      -0.19032342731952667,
      0.1756855696439743,
      0.2551726996898651,
      0.009830829687416553
    ],
    [
      -0.40030229091644287,
      0.5755615830421448,
      -0.26750925183296204,
      0.19745446741580963,
      -0.0589904710650444,
      -0.07096647471189499,
      -0.38105320930480957,
      0.3322957754135132,
      -0.04161481931805611,
      0.11512498557567596
    ],
    [
      -0.37265509366989136,
      0.1608351767063141,
      -0.1412007212638855,
      0.11625581979751587,
      0.26902562379837036,
      -0.15477335453033447,
      -0.28935492038726807,
      0.395675927400589,
      -0.1720561534166336,
      0.18824800848960876
    ],
    [
      -0.12228266149759293,
      -0.038303960114717484,
      -0.13743355870246887,
      0.15212564170360565,
      0.12845297157764435,
      -0.2047559916973114,
      -0.25579479336738586,
      0.3182451128959656,
      -0.11793019622564316,
      0.27767735719680786
    ],
    [
      0.009766925126314163,
      -0.09917186200618744,
      -0.05469046160578728,
      0.11386365443468094,
      -0.02802981249988079,
      -0.23306803405284882,
      -0.2078597992658615,
      0.312027245759964,
      -0.01672855019569397,
      0.20389093458652496
    ],
    [
      0.1140129491686821,
      -0.16808705031871796,
      0.0734795331954956,
      0.12273429334163666,
      -0.028516072779893875,
      -0.33812570571899414,
      -0.18778467178344727,
      0.1792343407869339,
      0.014036246575415134,
      0.2190159410238266
    ],
    [
      0.11981215327978134,
      -0.1691771149635315,
      -0.010586706921458244,
      0.12513716518878937,
      -0.12541146576404572,
      -0.42136985063552856,
      -0.1018744558095932,
      0.18587496876716614,
      0.06663849949836731,
      0.3309561014175415
    ],
    [
      0.1536797285079956,
      -0.13474741578102112,
      -0.03536665067076683,
      -0.026981359347701073,
      -0.1083737462759018,
      -0.386759877204895,
      -0.010134554468095303,
      0.1699618250131607,
      0.15006881952285767,
      0.2286527454853058
    ],
    [
      0.22295695543289185,
      -0.10242865234613419,
      -0.07002751529216766,
      -0.08539561182260513,
      -0.1463097333908081,
      -0.3379843533039093,
      0.02848530001938343,
      0.09592084586620331,
      0.26356440782546997,
      0.1312178671360016
    ],
    [
      0.2860157787799835,
      -0.07479321956634521,
      -0.09520131349563599,
      -0.09460939466953278,
      -0.1717900186777115,
      -0.1279246062040329,
      0.09703724086284637,
      -0.05111087113618851,
      0.25325486063957214,
      -0.02087865211069584
    ],
    [
      0.18307867646217346,
      -0.05074508115649223,
      -0.04924893379211426,
      -0.058407947421073914,
      -0.12519195675849915,
      0.0952606275677681,
      -0.002015643520280719,
      -0.06095966696739197,
      0.14626145362854004,
      -0.07803109288215637
    ],
    [
      -0.03712764009833336,
      -0.02297787182033062,
      0.008079295046627522,
      -0.00588210579007864,
      -0.05764127895236015,
      0.20028239488601685,
      -0.06641877442598343,
      -0.020440762862563133,
      0.038317300379276276,
      -0.03619062900543213
    ],
    [
      -0.019691558554768562,
      -0.00560235558077693,
      0.0035588061437010765,
      -0.0014782914659008384,
      -0.008780652657151222,
      0.057584259659051895,
      -0.03493949770927429,
      -0.005141894333064556,
      0.02471844106912613,
      -0.010227232240140438
    ],
    [
      -0.00019324124150443822,
      0.0008161329897120595,
      -6.969475361984223e-05,
      -1.9251245248597115e-05,
      -0.0004158295632805675,
      0.003120326204225421,
      -0.0029863244853913784,
      -0.0003961560723837465,
      0.0022123155649751425,
      -0.0020682772155851126
    ],
    [
      -1.2493933354562614e-06,
      -5.5291096145992924e-08,
      -1.7706187236399273e-06,
      -5.854492883372586e-06,
      -2.2478045593743445e-06,
      -3.7846471059310716e-06,
      -4.772457629087512e-08,
      0.0004276028193999082,
      -4.6162958824425004e-06,
      -0.00040797615656629205
    ],
    [
      -4.479612107388675e-05,
      -2.8768516131094657e-05,
      -1.2657611478061881e-05,
      -0.0015529418596997857,
      -0.006611397955566645,
      -0.0014095590449869633,
      -0.00013141127419658005,
      0.01938745751976967,
      -0.0003716216597240418,
      -0.0092242993414402
    ],
    [
      -0.0015860453713685274,
      -0.00039075527456589043,
      -0.0003050614905077964,
      -0.004083847627043724,
      -0.02810303494334221,
      -0.0035335521679371595,
      -0.0004838010936509818,
      0.0791102796792984,
      -0.002525430405512452,
      -0.03809873014688492
    ],
    [
      -0.014284677803516388,
      -0.0004940060898661613,
      -0.023564094677567482,
      0.000740613613743335,
      -0.04263373464345932,
      -0.013694694265723228,
      -0.01586734876036644,
      0.15017272531986237,
      0.003061594208702445,
      -0.04343622550368309
    ],
    [
      -0.06868506968021393,
      0.0004041976935695857,
      -0.07447370141744614,
      -0.0381561741232872,
      -0.08211817592382431,
      0.0004615437937900424,
      -0.034962646663188934,
      0.1980278044939041,
      0.0070084151811897755,
      0.09249399602413177
    ],
    [
      -0.01755191944539547,
      -0.023660095408558846,
      -0.27524900436401367,
      -0.15080547332763672,
      -0.037268608808517456,
      0.04611320048570633,
      0.0028300683479756117,
      0.13643164932727814,
      0.08410482108592987,
      0.23505555093288422
    ],
    [
      0.06465871632099152,
      -0.04828803613781929,
      -0.4683675169944763,
      -0.27566948533058167,
      0.07862646877765656,
      0.16017849743366241,
      0.0942375436425209,
      0.054135020822286606,
      0.09615394473075867,
      0.24433498084545135
    ],
    [
      0.060777731239795685,
      -0.07364143431186676,
      -0.5472079515457153,
      -0.35295569896698,
      0.1770080178976059,
      0.15064436197280884,
      0.1421797126531601,
      0.10663805156946182,
      0.1712917983531952,
      0.16526487469673157
    ],
    [
      0.019523100927472115,
      -0.11047396063804626,
      -0.458003968000412,
      -0.32161062955856323,
      0.27146437764167786,
      0.1099134236574173,
      0.11379332095384598,
      0.1061224490404129,
      0.11615803837776184,
      0.15311330556869507
    ],
    [
      0.016830844804644585,
      -0.15604892373085022,
      -0.4562188684940338,
      -0.1491069793701172,
      0.22865761816501617,
      0.002369548659771681,
      0.13198785483837128,
      0.02327551506459713,
      0.15348778665065765,
      0.2047651708126068
    ],
    [
      0.049086932092905045,
      -0.25951719284057617,
      -0.4521726369857788,
      -0.02212601527571678,
      0.3664243817329407,
      0.17510248720645905,
      0.055289577692747116,
      -0.05648556724190712,
      -0.03159607946872711,
      0.17599385976791382
    ],
    [
      0.048355549573898315,
      -0.3060096502304077,
      -0.4460790753364563,
      -0.05223681777715683,
      0.4711781144142151,
      0.28852081298828125,
      0.14583635330200195,
      -0.15179787576198578,
      -0.007268805056810379,
      0.009500540792942047
    ],
    [
      0.04750911518931389,
      -0.09606583416461945,
      -0.4873494803905487,
      0.06069755181670189,
      0.37326985597610474,
      0.29741090536117554,
      0.16666240990161896,
      -0.3514074683189392,
      0.14770568907260895,
      -0.1584327220916748
    ],
    [
      -0.11977891623973846,
      0.2132076919078827,
      -0.4636208713054657,
      0.16162270307540894,
      -0.10072894394397736,
      0.28179192543029785,
      0.061982203274965286,
      -0.42239826917648315,
      0.36508604884147644,
      0.022836044430732727
    ],
    [
      -0.4235781729221344,
      0.6958470344543457,
      -0.39100322127342224,
      0.2848532199859619,
      -0.29044419527053833,
      0.032226160168647766,
      -0.1911494880914688,
      -0.1724396049976349,
      0.24081189930438995,
      0.21487578749656677
    ],
    [
      -0.5542305707931519,
      0.48960432410240173,
      -0.32573580741882324,
      0.16994978487491608,
      0.08879058808088303,
      -0.10804484784603119,
      -0.20575378835201263,
      0.16475790739059448,
      0.045684125274419785,
      0.23497627675533295
    ],
    [
      -0.5003818273544312,
      0.10580911487340927,
      -0.24888047575950623,
      0.08408351987600327,
      0.33182984590530396,
      -0.2692958414554596,
      -0.099890798330307,
      0.34438174962997437,
      -0.02155439928174019,
      0.2738983631134033
    ],
    [
      -0.22640164196491241,
      0.00014838529750704765,
      -0.21395254135131836,
      0.06337501108646393,
      0.14954575896263123,
      -0.2603013217449188,
      -0.10519866645336151,
      0.28802239894866943,
      -0.015924058854579926,
      0.32068657875061035
    ],
    [
      -0.04566200077533722,
      -0.10043559223413467,
      -0.11348043382167816,
      0.08483952283859253,
      0.042508672922849655,
      -0.22763945162296295,
      -0.14436614513397217,
      0.23230116069316864,
      -0.033489927649497986,
      0.30542346835136414
    ],
    [
      0.028557613492012024,
      -0.14563597738742828,
      0.08004844188690186,
      -0.022669747471809387,
      0.04091838374733925,
      -0.29228511452674866,
      -0.1646118015050888,
      0.07211089879274368,
      0.07781823724508286,
      0.3257484436035156
    ],
    [
      0.029410135000944138,
      -0.11001769453287125,
      -0.01830541528761387,
      -0.09639523923397064,
      0.014790873043239117,
      -0.3891383111476898,
      -0.0502859503030777,
      0.08585987240076065,
      0.16366809606552124,
      0.37041324377059937
    ],
    [
      0.11646195501089096,
      -0.07205475866794586,
      -0.05725004896521568,
      -0.21262206137180328,
      0.0187166016548872,
      -0.5087466835975647,
      0.10873391479253769,
      0.06171037256717682,
      0.25171226263046265,
      0.2933382987976074
    ],
    [
      0.26552239060401917,
      -0.05620690435171127,
      -0.11994686722755432,
      -0.17458713054656982,
      -0.030001342296600342,
      -0.5329697728157043,
      0.21230578422546387,
      0.018956772983074188,
      0.23420575261116028,
      0.18272072076797485
    ],
    [
      0.3326757550239563,
      -0.03436223044991493,
      -0.15728464722633362,
      -0.10412994772195816,
      -0.09136652201414108,
      -0.4244691729545593,
      0.2626257836818695,
      -0.03336963430047035,
      0.2060486227273941,
      0.04363188147544861
    ],
    [
      0.22941559553146362,
      -0.021622471511363983,
      -0.012981781736016273,
      -0.04016414284706116,
      -0.05288725718855858,
      -0.2405797839164734,
      0.12028113007545471,
      -0.03488518297672272,
      0.1226336732506752,
      -0.06920970231294632
    ],
    [
      -0.0005058359238319099,
      -0.01064843125641346,
      0.049150366336107254,
      -0.00020899742958135903,
      -0.011433367617428303,
      0.002200273098424077,
      -0.028599511831998825,
      0.003745914436876774,
      0.026805579662322998,
      -0.030505944043397903
    ],
    [
      -0.009891342371702194,
      -0.0050199562683701515,
      0.030816765502095222,
      -0.00027840977418236434,
      -0.004933031741529703,
      0.022650742903351784,
      -0.03260588273406029,
      0.0046632736921310425,
      0.0069818017072975636,
      -0.012383964844048023
    ],
    [
      -5.404259718488902e-05,
      0.0006050701485946774,
      0.0031951628625392914,
      -2.6757297746371478e-05,
      -0.0016659341054037213,
      -0.0004727478954009712,
      -0.0018846060847863555,
      0.0024869015906006098,
      -0.0018635255983099341,
      -0.00031952050630934536
    ],
    [
      -1.3236229001734046e-08,
      1.3710621715290472e-05,
      -1.903537622638396e-06,
      -3.7302420423657168e-06,
      -1.0605209155301054e-07,
      -3.849417851142789e-07,
      -5.20736534781463e-07,
      -1.5205907857307466e-06,
      -3.1602212402503937e-06,
